
\data\
ngram 1=153
ngram 2=386
ngram 3=4303

\1-grams:
-2.849681	2	-99
-0.697588	</s>
-2.872395	<UNK>	-99
-99	<s>	-99
-2.564138	APF	-99
-2.571365	CR	-99
-2.56991	CT	-99
-2.567015	EPT	-99
-2.584683	FU	-99
-2.893293	GI	-99
-2.875319	REENDO	-99
-2.866604	SBS	-99
-2.872395	가압	-99
-2.887219	간단	-99
-1.922383	검사	-99
-2.572825	검진	-99
-2.852457	골삭제	-99
-2.281405	관	-99
-2.875319	관장	-99
-2.56846	교익	-99
-2.577234	교합	-99
-2.212434	구	-99
-2.26743	구강	-99
-2.586189	구내염	-99
-1.794917	근	-99
-2.583183	급여	-99
-2.86949	난	-99
-2.872395	단	-99
-2.4051	단순	-99
-2.884213	당일	-99
-2.875319	덴티스타	-99
-2.849681	동시	-99
-2.863738	드레싱	-99
-2.875319	러버댐	-99
-2.878264	로도질	-99
-2.276204	마취	-99
-2.849681	매	-99
-2.86949	매목	-99
-2.187044	매복	-99
-2.558443	메우기	-99
-2.574289	발수	-99
-2.561281	발치	-99
-2.866604	방송국	-99
-0.6064538	번	-99
-2.887219	보철	-99
-2.583183	보철물	-99
-2.587699	보철재	-99
-2.872395	보통	-99
-2.401143	복잡	-99
-2.866604	복조	-99
-2.887219	봉합사	-99
-2.890245	부분	-99
-2.587699	부착	-99
-2.583183	비	-99
-2.207993	사	-99
-2.204222	사십	-99
-2.208624	삼	-99
-2.209891	삼십	-99
-2.210525	삼십구	-99
-2.21116	삼십사	-99
-2.217566	삼십삼	-99
-2.204848	삼십오	-99
-2.204848	삼십육	-99
-2.213072	삼십이	-99
-2.204848	삼십일	-99
-2.209891	삼십칠	-99
-2.214993	삼십팔	-99
-2.577234	성형	-99
-2.409093	세균막	-99
-2.884213	세척	-99
-2.881228	셩형술	-99
-2.571365	소아	-99
-2.575759	소염술	-99
-2.872395	술	-99
-2.202972	십	-99
-2.211797	십구	-99
-2.213072	십사	-99
-2.207993	십삼	-99
-2.205475	십오	-99
-2.210525	십육	-99
-2.211797	십이	-99
-2.210525	십일	-99
-2.197392	십칠	-99
-2.212434	십팔	-99
-2.902566	아목시실린	-99
-2.583183	약관절	-99
-2.872395	연마	-99
-2.884213	영구	-99
-2.872395	영구접착	-99
-2.205475	오	-99
-2.878264	오구멘틴	-99
-2.583183	완전	-99
-2.56991	원외	-99
-2.116673	육	-99
-2.872395	육주사	-99
-2.872395	율	-99
-2.893293	응급	-99
-2.211797	이	-99
-2.216277	이십	-99
-2.201104	이십구	-99
-2.214351	이십사	-99
-2.209891	이십삼	-99
-2.197392	이십오	-99
-2.209257	이십육	-99
-2.213072	이십이	-99
-2.211797	이십일	-99
-2.207362	이십칠	-99
-2.203596	이십팔	-99
-2.55986	이완제	-99
-2.884213	인레이	-99
-2.209257	일	-99
-2.565574	임시	-99
-2.884213	임플	-99
-2.583183	장착	-99
-2.578713	전달	-99
-2.893293	절단	-99
-2.09962	절제	-99
-2.395274	접착	-99
-1.918152	제거	-99
-2.577234	조정	-99
-2.86089	주사	-99
-2.583183	지각	-99
-2.884213	진정	-99
-2.269607	처방	-99
-2.038687	처치	-99
-2.584683	체크	-99
-2.096679	촬영	-99
-2.398198	충	-99
-2.581688	충전	-99
-2.577234	충전재	-99
-2.875319	측정	-99
-2.575759	치관	-99
-2.575759	치근	-99
-2.577234	치면	-99
-2.584683	치석	-99
-2.578713	치수	-99
-2.178114	치은	-99
-2.575759	치은판	-99
-2.881228	치조	-99
-2.575759	치조골	-99
-2.85806	치주소파	-99
-2.207362	칠	-99
-2.575759	침윤	-99
-2.878264	파노라마	-99
-2.85806	파철편	-99
-2.201726	팔	-99
-2.55986	포스트	-99
-2.581688	혈당	-99
-2.558443	홈	-99
-2.872395	확대	-99
-2.575759	확장	-99
-2.881228	활택	-99
-2.580198	후	-99

\2-grams:
0	2 매
0	<UNK> </s>
-3.745933	<s> APF	-0.3890336
-3.502895	<s> CR
-3.502895	<s> CT
-3.502895	<s> EPT
-3.745933	<s> GI
-3.870872	<s> SBS
-4.046963	<s> 가압
-3.444903	<s> 교익
-3.569842	<s> 교합
-1.617211	<s> 구
-3.23405	<s> 구강
-3.444903	<s> 구내염
-2.900835	<s> 근	-0.8675358
-3.870872	<s> 난
-3.393751	<s> 단순
-3.745933	<s> 당일
-3.870872	<s> 덴티스타
-3.745933	<s> 동시
-3.745933	<s> 드레싱
-3.870872	<s> 러버댐
-3.870872	<s> 로도질
-3.745933	<s> 발수	-0.3932352
-3.870872	<s> 발치
-3.745933	<s> 보철
-3.444903	<s> 보철물
-3.444903	<s> 보철재
-3.870872	<s> 보통
-3.444903	<s> 복잡	-0.4825752
-3.870872	<s> 봉합사
-3.745933	<s> 부분
-3.502895	<s> 비
-1.611597	<s> 사
-1.606054	<s> 사십
-1.609213	<s> 삼
-1.60763	<s> 삼십
-1.613994	<s> 삼십구
-1.610006	<s> 삼십사
-1.618828	<s> 삼십삼
-1.601359	<s> 삼십오
-1.606054	<s> 삼십육
-1.618019	<s> 삼십이
-1.605268	<s> 삼십일
-1.605268	<s> 삼십칠
-1.618828	<s> 삼십팔
-3.745933	<s> 세균막
-3.444903	<s> 소아
-3.502895	<s> 소염술
-1.6037	<s> 십
-1.610801	<s> 십구
-1.615599	<s> 십사
-1.610006	<s> 십삼
-1.604483	<s> 십오
-1.614796	<s> 십육
-1.612394	<s> 십이
-1.610006	<s> 십일
-1.601359	<s> 십칠
-1.610801	<s> 십팔
-3.745933	<s> 아목시실린
-3.569842	<s> 약관절
-4.046963	<s> 영구
-3.745933	<s> 영구접착
-1.608421	<s> 오
-3.870872	<s> 오구멘틴
-3.502895	<s> 완전
-3.502895	<s> 원외
-1.605268	<s> 육	-1.999294
-3.745933	<s> 응급
-1.612394	<s> 이
-1.614796	<s> 이십
-1.602918	<s> 이십구
-1.613193	<s> 이십사
-1.615599	<s> 이십삼
-1.599805	<s> 이십오
-1.613193	<s> 이십육
-1.611597	<s> 이십이
-1.611597	<s> 이십일
-1.614796	<s> 이십칠
-1.597485	<s> 이십팔
-3.745933	<s> 인레이
-1.612394	<s> 일
-3.444903	<s> 임시
-3.745933	<s> 임플
-3.569842	<s> 전달
-3.502895	<s> 지각
-3.745933	<s> 진정
-3.745933	<s> 충전	-0.3915542
-3.569842	<s> 충전재
-3.444903	<s> 치관
-3.502895	<s> 치근
-3.502895	<s> 치면
-3.745933	<s> 치석
-3.444903	<s> 치수
-3.201865	<s> 치은	-0.4818101
-3.502895	<s> 치은판
-3.502895	<s> 치조골
-3.870872	<s> 치주소파
-1.611597	<s> 칠
-3.444903	<s> 침윤
-3.870872	<s> 파노라마
-3.745933	<s> 파철편
-1.601359	<s> 팔
-3.502895	<s> 포스트
-3.569842	<s> 혈당
-3.444903	<s> 홈
-3.502895	<s> 후
-0.3141253	APF </s>
-0.288318	APF 골삭제
0	CR 제거
0	CT 촬영
0	EPT 검사
0	FU 체크
0	GI 충전	-1.864629
0	REENDO </s>
0	SBS 방송국
0	가압 근	-2.051559
0	간단 </s>
0	검사 </s>
0	검진 </s>
0	골삭제 </s>
-0.6028081	관 성형	-1.869192
-0.6028081	관 세척
-0.6118878	관 처치
-0.5909899	관 확대
0	관장 측정
0	교익 촬영
0	교합 조정
0	구 번	-0.8321531
-0.2967086	구강 검사
-0.3053948	구강 검진
0	구내염 처치
-0.4864878	근 관
-1.080402	근 관장
-1.065972	근 육	-2.101222
-1.077478	근 육주사
-0.7649425	근 이완제
-0.603281	근 충
0	급여 </s>
0	난 발치
0	단 </s>
-0.4643902	단순 근	-2.054445
-0.1825995	단순 매복
0	당일 발수	-1.872038
0	덴티스타 </s>
0	동시 2
0	드레싱 </s>
0	러버댐 </s>
0	로도질 </s>
0	마취 </s>
0	매 </s>
0	매목 </s>
0	매복 </s>
0	메우기 </s>
-0.2923148	발수 </s>
-0.3099237	발수 근	-2.03982
0	발치 </s>
0	방송국 </s>
-0.6915602	번 </s>
-2.265941	번 <UNK>
-1.963456	번 APF
-1.975234	번 CR
-1.973745	번 CT
-1.97078	번 EPT
-2.299248	번 GI
-2.268866	번 REENDO
-2.268866	번 SBS
-2.27181	번 가압
-1.973745	번 교익
-1.979735	번 교합
-2.283791	번 구
-1.670489	번 구강
-1.991969	번 구내염
-1.372056	번 근	-2.464152
-2.27181	번 난
-1.807684	번 단순
-2.289908	번 당일
-2.277759	번 덴티스타
-2.254436	번 동시
-2.268866	번 드레싱
-2.277759	번 러버댐
-2.280765	번 로도질
-2.27181	번 발수	-1.860338
-2.257284	번 발치
-2.292999	번 보철
-1.988878	번 보철물
-1.993523	번 보철재
-2.274775	번 보통
-1.981245	번 복잡	-1.97931
-2.289908	번 봉합사
-2.296113	번 부분
-1.987341	번 비
-2.283791	번 사
-2.286839	번 사십
-2.296113	번 삼
-2.308794	번 삼십
-2.286839	번 삼십구
-2.305588	번 삼십사
-2.302407	번 삼십삼
-2.308794	번 삼십오
-2.289908	번 삼십육
-2.283791	번 삼십이
-2.292999	번 삼십일
-2.318553	번 삼십칠
-2.289908	번 삼십팔
-2.308794	번 세균막
-1.976729	번 소아
-1.979735	번 소염술
-2.289908	번 십
-2.305588	번 십구
-2.292999	번 십사
-2.289908	번 십삼
-2.299248	번 십오
-2.283791	번 십육
-2.299248	번 십이
-2.302407	번 십일
-2.27181	번 십칠
-2.308794	번 십팔
-2.308794	번 아목시실린
-1.985809	번 약관절
-2.283791	번 영구
-2.277759	번 영구접착
-2.283791	번 오
-2.280765	번 오구멘틴
-1.987341	번 완전
-1.973745	번 원외
-2.283791	번 육	-1.414146
-2.299248	번 응급
-2.299248	번 이
-2.312022	번 이십
-2.283791	번 이십구
-2.308794	번 이십사
-2.277759	번 이십삼
-2.277759	번 이십오
-2.283791	번 이십육
-2.308794	번 이십이
-2.302407	번 이십일
-2.268866	번 이십칠
-2.318553	번 이십팔
-2.289908	번 인레이
-2.286839	번 일
-1.97078	번 임시
-2.289908	번 임플
-1.981245	번 전달
-1.987341	번 지각
-2.289908	번 진정
-2.277759	번 충전	-1.852748
-1.979735	번 충전재
-1.981245	번 치관
-1.979735	번 치근
-1.981245	번 치면
-2.286839	번 치석
-1.984282	번 치수
-1.680215	번 치은	-2.065387
-1.979735	번 치은판
-1.979735	번 치조골
-2.26015	번 치주소파
-2.280765	번 칠
-1.981245	번 침윤
-2.280765	번 파노라마
-2.263036	번 파철편
-2.292999	번 팔
-1.963456	번 포스트
-1.984282	번 혈당
-1.963456	번 홈
-1.984282	번 후
0	보철 FU
0	보철물 장착
0	보철재 부착
0	보통 처치
-0.4800857	복잡 </s>
-0.4683473	복잡 매목
-0.4830706	복잡 매복
0	복조 </s>
0	봉합사 </s>
0	부분 치석
0	부착 </s>
0	비 급여
0	사 번	-0.7787077
0	사십 번	-0.8309858
0	삼 번	-1.135343
0	삼십 번	-0.7806497
0	삼십구 번	-0.8247969
0	삼십사 번	-0.77513
0	삼십삼 번	-0.7644584
0	삼십오 번	-0.8246136
0	삼십육 번	-0.8354361
0	삼십이 번	-0.7666137
0	삼십일 번	-1.104809
0	삼십칠 번	-0.7783837
0	삼십팔 번	-0.7448945
-0.3069793	성형 </s>
-0.2951611	성형 술
0	세균막 검사
0	세척 </s>
0	셩형술 </s>
0	소아 처방
-0.2966357	소염술 치은	-2.078001
-0.3054692	소염술 치조
0	술 </s>
0	십 번	-0.8369741
0	십구 번	-1.059293
0	십사 번	-0.7242885
0	십삼 번	-1.079331
0	십오 번	-0.8021767
0	십육 번	-0.8358142
0	십이 번	-1.093554
0	십일 번	-0.778826
0	십칠 번	-0.8689499
0	십팔 번	-1.078484
0	아목시실린 </s>
0	약관절 촬영
0	연마 </s>
0	영구 접착
0	영구접착 </s>
0	오 번	-0.8330963
0	오구멘틴 </s>
0	완전 매복
0	원외 처방
-0.08629845	육 번	-1.106714
-0.7442163	육 주사
0	육주사 </s>
0	율 연마
0	응급 근	-1.983853
0	이 번	-0.780575
0	이십 번	-1.054102
0	이십구 번	-0.8143182
0	이십사 번	-0.798918
0	이십삼 번	-0.7690096
0	이십오 번	-0.8796382
0	이십육 번	-0.7635217
0	이십이 번	-1.085167
0	이십일 번	-0.8157997
0	이십칠 번	-0.8011966
0	이십팔 번	-0.8245609
0	이완제 </s>
0	인레이 </s>
0	일 번	-0.7884009
0	임시 접착
0	임플 FU
0	장착 </s>
0	전달 마취
0	절단 </s>
0	절제 </s>
0	접착 </s>
0	제거 </s>
0	조정 </s>
0	주사 </s>
-0.3040355	지각 간단
-0.2980451	지각 복잡	-1.992701
0	진정 처치
0	처방 </s>
0	처치 </s>
0	체크 </s>
0	촬영 </s>
0	충 </s>
-0.3116046	충전 </s>
-0.2907067	충전 율
0	충전재 제거
0	측정 </s>
0	치관 확장
-0.2966357	치근 단
-0.3054692	치근 활택
0	치면 세균막
0	치석 제거
-0.2878907	치수 복조
-0.3145793	치수 절단
-0.6942812	치은 </s>
-0.09809016	치은 절제
0	치은판 절제
0	치조 </s>
-0.2966357	치조골 성형	-1.869112
-0.3054692	치조골 셩형술
0	치주소파 </s>
0	칠 번	-0.8341477
0	침윤 마취
0	파노라마 </s>
0	파철편 제거
0	팔 번	-0.8776822
0	포스트 제거
0	혈당 검사
0	홈 메우기
0	확대 </s>
0	확장 </s>
0	활택 </s>
0	후 처치

\3-grams:
-0.09586907	<s> APF 골삭제
-0.5081555	<s> 근 관
-0.859297	<s> 근 관장
-0.859297	<s> 근 육
-0.9852768	<s> 근 육주사
-0.559308	<s> 근 이완제
-0.002904991	가압 근 충
-0.002885688	단순 근 충
-0.002984853	발수 근 충
-0.4339744	번 근 관
-0.9090803	번 근 관장
-0.8942566	번 근 육
-0.90309	번 근 육주사
-0.5932266	번 근 이완제
-0.003047693	응급 근 관
-0.09586907	<s> 발수 </s>
-0.002984853	당일 발수 근
-0.002944381	번 발수 </s>
-0.6778111	구 번 </s>
-2.230046	구 번 <UNK>
-1.988049	구 번 APF
-1.930057	구 번 CR
-1.988049	구 번 CT
-1.930057	구 번 EPT
-2.230046	구 번 GI
-2.230046	구 번 REENDO
-2.356026	구 번 SBS
-2.230046	구 번 가압
-1.988049	구 번 교익
-1.930057	구 번 교합
-1.687019	구 번 구강
-1.930057	구 번 구내염
-1.401783	구 번 근
-2.230046	구 번 난
-1.930057	구 번 단순
-2.230046	구 번 당일
-2.230046	구 번 덴티스타
-2.230046	구 번 동시
-2.356026	구 번 드레싱
-2.230046	구 번 러버댐
-2.230046	구 번 로도질
-2.230046	구 번 발수
-2.230046	구 번 발치
-2.230046	구 번 보철
-1.988049	구 번 보철물
-1.930057	구 번 보철재
-2.230046	구 번 보통
-2.054996	구 번 복잡
-2.230046	구 번 봉합사
-2.356026	구 번 부분
-1.930057	구 번 비
-2.230046	구 번 사
-2.230046	구 번 사십
-2.230046	구 번 삼
-2.230046	구 번 삼십
-2.230046	구 번 삼십구
-2.356026	구 번 삼십사
-2.230046	구 번 삼십삼
-2.356026	구 번 삼십오
-2.230046	구 번 삼십육
-2.356026	구 번 삼십이
-2.230046	구 번 삼십일
-2.356026	구 번 삼십칠
-2.230046	구 번 삼십팔
-2.230046	구 번 세균막
-1.988049	구 번 소아
-1.988049	구 번 소염술
-2.356026	구 번 십
-2.356026	구 번 십구
-2.230046	구 번 십사
-2.230046	구 번 십삼
-2.356026	구 번 십오
-2.356026	구 번 십육
-2.230046	구 번 십이
-2.230046	구 번 십일
-2.356026	구 번 십칠
-2.532117	구 번 십팔
-2.230046	구 번 아목시실린
-1.988049	구 번 약관절
-2.230046	구 번 영구
-2.230046	구 번 오
-2.230046	구 번 오구멘틴
-1.988049	구 번 완전
-1.988049	구 번 원외
-2.230046	구 번 육
-2.356026	구 번 응급
-2.356026	구 번 이
-2.356026	구 번 이십
-2.230046	구 번 이십구
-2.356026	구 번 이십사
-2.230046	구 번 이십삼
-2.230046	구 번 이십오
-2.356026	구 번 이십육
-2.230046	구 번 이십이
-2.230046	구 번 이십일
-2.356026	구 번 이십칠
-2.532117	구 번 이십팔
-2.230046	구 번 인레이
-1.930057	구 번 임시
-2.230046	구 번 임플
-1.988049	구 번 전달
-1.988049	구 번 지각
-2.230046	구 번 진정
-2.356026	구 번 충전
-1.930057	구 번 충전재
-1.988049	구 번 치관
-1.930057	구 번 치근
-1.988049	구 번 치면
-2.230046	구 번 치석
-1.930057	구 번 치수
-1.687019	구 번 치은
-2.054996	구 번 치은판
-1.930057	구 번 치조골
-2.356026	구 번 치주소파
-2.230046	구 번 칠
-1.988049	구 번 침윤
-2.532117	구 번 파노라마
-2.230046	구 번 파철편
-2.532117	구 번 팔
-2.054996	구 번 포스트
-1.930057	구 번 혈당
-1.930057	구 번 홈
-2.134177	구 번 후
-0.6828832	사 번 </s>
-2.235118	사 번 <UNK>
-1.935129	사 번 APF
-2.139249	사 번 CR
-1.935129	사 번 CT
-1.935129	사 번 EPT
-2.361098	사 번 GI
-2.235118	사 번 REENDO
-2.361098	사 번 SBS
-2.235118	사 번 가압
-1.935129	사 번 교익
-2.060068	사 번 교합
-2.235118	사 번 구
-1.662128	사 번 구강
-1.935129	사 번 구내염
-1.361098	사 번 근
-2.235118	사 번 난
-1.759038	사 번 단순
-2.361098	사 번 당일
-2.235118	사 번 덴티스타
-2.235118	사 번 동시
-2.361098	사 번 드레싱
-2.361098	사 번 러버댐
-2.361098	사 번 로도질
-2.235118	사 번 발수
-2.235118	사 번 발치
-2.361098	사 번 보철
-2.139249	사 번 보철물
-1.993121	사 번 보철재
-2.235118	사 번 보통
-1.935129	사 번 복잡
-2.361098	사 번 봉합사
-2.361098	사 번 부분
-1.935129	사 번 비
-2.235118	사 번 사십
-2.235118	사 번 삼
-2.235118	사 번 삼십
-2.235118	사 번 삼십구
-2.235118	사 번 삼십사
-2.235118	사 번 삼십삼
-2.235118	사 번 삼십오
-2.235118	사 번 삼십육
-2.235118	사 번 삼십이
-2.235118	사 번 삼십일
-2.361098	사 번 삼십칠
-2.361098	사 번 삼십팔
-2.235118	사 번 세균막
-1.993121	사 번 소아
-1.935129	사 번 소염술
-2.235118	사 번 십
-2.235118	사 번 십구
-2.537189	사 번 십사
-2.235118	사 번 십삼
-2.537189	사 번 십오
-2.235118	사 번 십육
-2.537189	사 번 십이
-2.537189	사 번 십일
-2.235118	사 번 십칠
-2.235118	사 번 십팔
-2.235118	사 번 아목시실린
-2.060068	사 번 약관절
-2.361098	사 번 영구
-2.361098	사 번 영구접착
-2.537189	사 번 오
-2.235118	사 번 오구멘틴
-2.060068	사 번 완전
-1.935129	사 번 원외
-2.235118	사 번 육
-2.361098	사 번 응급
-2.235118	사 번 이
-2.235118	사 번 이십
-2.235118	사 번 이십구
-2.361098	사 번 이십사
-2.235118	사 번 이십삼
-2.235118	사 번 이십오
-2.361098	사 번 이십육
-2.235118	사 번 이십이
-2.235118	사 번 이십일
-2.235118	사 번 이십칠
-2.361098	사 번 이십팔
-2.537189	사 번 인레이
-2.361098	사 번 일
-1.993121	사 번 임시
-2.361098	사 번 임플
-1.993121	사 번 전달
-1.993121	사 번 지각
-2.235118	사 번 진정
-2.361098	사 번 충전
-1.993121	사 번 충전재
-1.935129	사 번 치관
-1.993121	사 번 치근
-1.935129	사 번 치면
-2.361098	사 번 치석
-1.993121	사 번 치수
-1.662128	사 번 치은
-1.935129	사 번 치은판
-1.993121	사 번 치조골
-2.235118	사 번 치주소파
-2.235118	사 번 칠
-1.993121	사 번 침윤
-2.361098	사 번 파노라마
-2.235118	사 번 파철편
-2.361098	사 번 팔
-1.935129	사 번 포스트
-1.993121	사 번 혈당
-1.935129	사 번 홈
-1.993121	사 번 후
-0.6896964	사십 번 </s>
-2.238884	사십 번 <UNK>
-1.938895	사십 번 APF
-1.938895	사십 번 CR
-1.996887	사십 번 CT
-1.938895	사십 번 EPT
-2.238884	사십 번 GI
-2.238884	사십 번 REENDO
-2.238884	사십 번 SBS
-2.238884	사십 번 가압
-1.938895	사십 번 교익
-1.996887	사십 번 교합
-2.238884	사십 번 구
-1.665894	사십 번 구강
-1.996887	사십 번 구내염
-1.350623	사십 번 근
-2.364864	사십 번 난
-1.762804	사십 번 단순
-2.238884	사십 번 당일
-2.238884	사십 번 덴티스타
-2.364864	사십 번 동시
-2.238884	사십 번 드레싱
-2.238884	사십 번 러버댐
-2.238884	사십 번 로도질
-2.364864	사십 번 발수
-2.238884	사십 번 발치
-2.238884	사십 번 보철
-1.938895	사십 번 보철물
-2.238884	사십 번 보철재
-2.364864	사십 번 보통
-1.996887	사십 번 복잡
-2.238884	사십 번 봉합사
-2.238884	사십 번 부분
-2.063833	사십 번 비
-2.238884	사십 번 사
-2.238884	사십 번 삼
-2.238884	사십 번 삼십
-2.238884	사십 번 삼십구
-2.238884	사십 번 삼십사
-2.364864	사십 번 삼십삼
-2.364864	사십 번 삼십오
-2.238884	사십 번 삼십육
-2.364864	사십 번 삼십이
-2.238884	사십 번 삼십일
-2.238884	사십 번 삼십칠
-2.364864	사십 번 삼십팔
-2.238884	사십 번 세균막
-2.063833	사십 번 소아
-1.938895	사십 번 소염술
-2.238884	사십 번 십
-2.540955	사십 번 십구
-2.364864	사십 번 십사
-2.238884	사십 번 십삼
-2.238884	사십 번 십오
-2.238884	사십 번 십육
-2.238884	사십 번 십이
-2.364864	사십 번 십일
-2.238884	사십 번 십칠
-2.364864	사십 번 십팔
-2.238884	사십 번 아목시실린
-1.938895	사십 번 약관절
-2.238884	사십 번 영구
-2.364864	사십 번 영구접착
-2.238884	사십 번 오
-2.540955	사십 번 오구멘틴
-1.938895	사십 번 완전
-1.938895	사십 번 원외
-2.238884	사십 번 육
-2.238884	사십 번 응급
-2.238884	사십 번 이
-2.364864	사십 번 이십
-2.364864	사십 번 이십구
-2.364864	사십 번 이십사
-2.238884	사십 번 이십삼
-2.238884	사십 번 이십오
-2.364864	사십 번 이십육
-2.364864	사십 번 이십이
-2.238884	사십 번 이십일
-2.238884	사십 번 이십칠
-2.238884	사십 번 이십팔
-2.364864	사십 번 인레이
-2.238884	사십 번 일
-1.996887	사십 번 임시
-2.238884	사십 번 임플
-1.938895	사십 번 전달
-1.996887	사십 번 지각
-2.238884	사십 번 진정
-2.238884	사십 번 충전
-1.938895	사십 번 충전재
-1.996887	사십 번 치관
-1.996887	사십 번 치근
-2.143015	사십 번 치면
-2.238884	사십 번 치석
-1.996887	사십 번 치수
-1.665894	사십 번 치은
-1.996887	사십 번 치은판
-1.996887	사십 번 치조골
-2.238884	사십 번 치주소파
-2.364864	사십 번 칠
-2.063833	사십 번 침윤
-2.364864	사십 번 파노라마
-2.364864	사십 번 파철편
-2.238884	사십 번 팔
-1.938895	사십 번 포스트
-2.063833	사십 번 혈당
-1.996887	사십 번 홈
-1.996887	사십 번 후
-0.693942	삼 번 </s>
-2.233856	삼 번 <UNK>
-2.058805	삼 번 APF
-1.991859	삼 번 CR
-1.933867	삼 번 CT
-1.933867	삼 번 EPT
-2.359835	삼 번 GI
-2.233856	삼 번 REENDO
-2.233856	삼 번 SBS
-2.233856	삼 번 가압
-1.933867	삼 번 교익
-1.933867	삼 번 교합
-2.233856	삼 번 구
-1.632837	삼 번 구강
-1.991859	삼 번 구내염
-1.359836	삼 번 근
-2.233856	삼 번 난
-1.795564	삼 번 단순
-2.359835	삼 번 당일
-2.233856	삼 번 덴티스타
-2.233856	삼 번 동시
-2.233856	삼 번 드레싱
-2.233856	삼 번 러버댐
-2.233856	삼 번 로도질
-2.233856	삼 번 발수
-2.233856	삼 번 발치
-1.991859	삼 번 보철물
-1.933867	삼 번 보철재
-2.359835	삼 번 보통
-2.058805	삼 번 복잡
-2.233856	삼 번 봉합사
-2.233856	삼 번 부분
-1.991859	삼 번 비
-2.359835	삼 번 사
-2.233856	삼 번 사십
-2.233856	삼 번 삼십
-2.359835	삼 번 삼십구
-2.233856	삼 번 삼십사
-2.359835	삼 번 삼십삼
-2.233856	삼 번 삼십오
-2.233856	삼 번 삼십육
-2.233856	삼 번 삼십이
-2.359835	삼 번 삼십일
-2.233856	삼 번 삼십칠
-2.233856	삼 번 삼십팔
-2.359835	삼 번 세균막
-2.058805	삼 번 소아
-1.933867	삼 번 소염술
-2.233856	삼 번 십
-2.359835	삼 번 십구
-2.359835	삼 번 십사
-2.233856	삼 번 십삼
-2.359835	삼 번 십오
-2.359835	삼 번 십육
-2.233856	삼 번 십이
-2.359835	삼 번 십일
-2.233856	삼 번 십칠
-2.233856	삼 번 십팔
-2.233856	삼 번 아목시실린
-1.991859	삼 번 약관절
-2.233856	삼 번 영구
-2.233856	삼 번 영구접착
-2.233856	삼 번 오
-2.233856	삼 번 오구멘틴
-1.991859	삼 번 완전
-1.933867	삼 번 원외
-2.233856	삼 번 육
-2.535927	삼 번 응급
-2.233856	삼 번 이
-2.233856	삼 번 이십
-2.233856	삼 번 이십구
-2.359835	삼 번 이십사
-2.233856	삼 번 이십삼
-2.359835	삼 번 이십오
-2.233856	삼 번 이십육
-2.233856	삼 번 이십이
-2.233856	삼 번 이십일
-2.233856	삼 번 이십칠
-2.535927	삼 번 이십팔
-2.233856	삼 번 인레이
-2.233856	삼 번 일
-1.933867	삼 번 임시
-2.233856	삼 번 임플
-1.991859	삼 번 전달
-1.991859	삼 번 지각
-2.359835	삼 번 진정
-2.233856	삼 번 충전
-1.933867	삼 번 충전재
-1.933867	삼 번 치관
-2.058805	삼 번 치근
-1.933867	삼 번 치면
-2.359835	삼 번 치석
-1.991859	삼 번 치수
-1.690829	삼 번 치은
-1.933867	삼 번 치은판
-2.359835	삼 번 치조골
-2.233856	삼 번 치주소파
-2.359835	삼 번 칠
-2.233856	삼 번 침윤
-2.233856	삼 번 파노라마
-2.233856	삼 번 파철편
-2.233856	삼 번 팔
-1.933867	삼 번 포스트
-1.991859	삼 번 혈당
-1.991859	삼 번 홈
-2.058805	삼 번 후
-0.7059904	삼십 번 </s>
-2.233223	삼십 번 <UNK>
-1.991226	삼십 번 APF
-1.991226	삼십 번 CR
-1.933234	삼십 번 CT
-1.933234	삼십 번 EPT
-2.233223	삼십 번 GI
-2.535294	삼십 번 REENDO
-2.359203	삼십 번 SBS
-2.233223	삼십 번 가압
-1.991226	삼십 번 교익
-1.933234	삼십 번 교합
-2.233223	삼십 번 구
-1.690196	삼십 번 구강
-1.933234	삼십 번 구내염
-1.344962	삼십 번 근
-2.233223	삼십 번 난
-1.794931	삼십 번 단순
-2.359203	삼십 번 당일
-2.233223	삼십 번 덴티스타
-2.233223	삼십 번 동시
-2.535294	삼십 번 드레싱
-2.233223	삼십 번 러버댐
-2.233223	삼십 번 로도질
-2.233223	삼십 번 발수
-2.233223	삼십 번 발치
-2.233223	삼십 번 보철
-2.058173	삼십 번 보철물
-1.991226	삼십 번 보철재
-2.233223	삼십 번 보통
-1.991226	삼십 번 복잡
-2.359203	삼십 번 봉합사
-2.359203	삼십 번 부분
-1.991226	삼십 번 비
-2.359203	삼십 번 사
-2.233223	삼십 번 사십
-2.359203	삼십 번 삼
-2.535294	삼십 번 삼십구
-2.233223	삼십 번 삼십사
-2.359203	삼십 번 삼십삼
-2.233223	삼십 번 삼십오
-2.359203	삼십 번 삼십육
-2.233223	삼십 번 삼십이
-2.535294	삼십 번 삼십일
-2.233223	삼십 번 삼십칠
-2.535294	삼십 번 삼십팔
-2.233223	삼십 번 세균막
-1.933234	삼십 번 소아
-2.058173	삼십 번 소염술
-2.359203	삼십 번 십
-2.359203	삼십 번 십구
-2.233223	삼십 번 십사
-2.233223	삼십 번 십삼
-2.233223	삼십 번 십오
-2.233223	삼십 번 십육
-2.359203	삼십 번 십이
-2.233223	삼십 번 십일
-2.233223	삼십 번 십칠
-2.233223	삼십 번 십팔
-2.359203	삼십 번 아목시실린
-1.991226	삼십 번 약관절
-2.359203	삼십 번 영구
-2.359203	삼십 번 영구접착
-2.233223	삼십 번 오
-2.359203	삼십 번 오구멘틴
-1.933234	삼십 번 완전
-1.991226	삼십 번 원외
-2.233223	삼십 번 육
-2.359203	삼십 번 응급
-2.233223	삼십 번 이
-2.359203	삼십 번 이십
-2.359203	삼십 번 이십구
-2.233223	삼십 번 이십사
-2.233223	삼십 번 이십삼
-2.233223	삼십 번 이십오
-2.233223	삼십 번 이십육
-2.233223	삼십 번 이십이
-2.359203	삼십 번 이십일
-2.233223	삼십 번 이십칠
-2.233223	삼십 번 이십팔
-2.233223	삼십 번 인레이
-2.233223	삼십 번 일
-2.058173	삼십 번 임시
-2.233223	삼십 번 임플
-1.933234	삼십 번 전달
-1.991226	삼십 번 지각
-2.233223	삼십 번 진정
-2.359203	삼십 번 충전
-2.058173	삼십 번 충전재
-1.933234	삼십 번 치관
-2.137354	삼십 번 치근
-1.991226	삼십 번 치면
-2.233223	삼십 번 치석
-1.933234	삼십 번 치수
-1.660233	삼십 번 치은
-1.933234	삼십 번 치은판
-1.991226	삼십 번 치조골
-2.233223	삼십 번 치주소파
-2.233223	삼십 번 칠
-1.933234	삼십 번 침윤
-2.233223	삼십 번 파노라마
-2.233223	삼십 번 파철편
-2.233223	삼십 번 팔
-1.933234	삼십 번 포스트
-1.991226	삼십 번 혈당
-1.933234	삼십 번 홈
-1.933234	삼십 번 후
-0.6834022	삼십구 번 </s>
-2.23259	삼십구 번 <UNK>
-1.990592	삼십구 번 APF
-1.990592	삼십구 번 CR
-1.932601	삼십구 번 CT
-1.932601	삼십구 번 EPT
-2.23259	삼십구 번 GI
-2.23259	삼십구 번 REENDO
-2.534661	삼십구 번 SBS
-2.358569	삼십구 번 가압
-1.990592	삼십구 번 교익
-1.990592	삼십구 번 교합
-2.23259	삼십구 번 구
-1.689563	삼십구 번 구강
-2.057539	삼십구 번 구내염
-1.344329	삼십구 번 근
-2.23259	삼십구 번 난
-1.794298	삼십구 번 단순
-2.358569	삼십구 번 당일
-2.534661	삼십구 번 덴티스타
-2.23259	삼십구 번 동시
-2.358569	삼십구 번 드레싱
-2.23259	삼십구 번 러버댐
-2.23259	삼십구 번 로도질
-2.358569	삼십구 번 발수
-2.358569	삼십구 번 발치
-2.23259	삼십구 번 보철
-2.136721	삼십구 번 보철물
-1.990592	삼십구 번 보철재
-2.23259	삼십구 번 보통
-2.057539	삼십구 번 복잡
-2.23259	삼십구 번 봉합사
-2.23259	삼십구 번 부분
-2.23259	삼십구 번 비
-2.358569	삼십구 번 사
-2.23259	삼십구 번 사십
-2.23259	삼십구 번 삼
-2.23259	삼십구 번 삼십
-2.23259	삼십구 번 삼십사
-2.358569	삼십구 번 삼십삼
-2.534661	삼십구 번 삼십오
-2.23259	삼십구 번 삼십육
-2.23259	삼십구 번 삼십이
-2.23259	삼십구 번 삼십일
-2.358569	삼십구 번 삼십칠
-2.358569	삼십구 번 삼십팔
-2.23259	삼십구 번 세균막
-1.990592	삼십구 번 소아
-2.057539	삼십구 번 소염술
-2.358569	삼십구 번 십
-2.23259	삼십구 번 십구
-2.358569	삼십구 번 십사
-2.23259	삼십구 번 십삼
-2.23259	삼십구 번 십오
-2.23259	삼십구 번 십육
-2.358569	삼십구 번 십이
-2.23259	삼십구 번 십일
-2.23259	삼십구 번 십칠
-2.23259	삼십구 번 십팔
-2.23259	삼십구 번 아목시실린
-1.990592	삼십구 번 약관절
-2.358569	삼십구 번 영구
-2.23259	삼십구 번 영구접착
-2.358569	삼십구 번 오
-2.23259	삼십구 번 오구멘틴
-2.057539	삼십구 번 완전
-1.990592	삼십구 번 원외
-2.23259	삼십구 번 육
-2.23259	삼십구 번 응급
-2.358569	삼십구 번 이
-2.23259	삼십구 번 이십
-2.23259	삼십구 번 이십구
-2.534661	삼십구 번 이십사
-2.358569	삼십구 번 이십삼
-2.23259	삼십구 번 이십오
-2.23259	삼십구 번 이십육
-2.534661	삼십구 번 이십이
-2.23259	삼십구 번 이십일
-2.23259	삼십구 번 이십칠
-2.358569	삼십구 번 이십팔
-2.23259	삼십구 번 인레이
-2.23259	삼십구 번 일
-1.932601	삼십구 번 임시
-2.23259	삼십구 번 임플
-2.057539	삼십구 번 전달
-1.990592	삼십구 번 지각
-2.23259	삼십구 번 진정
-2.23259	삼십구 번 충전
-1.990592	삼십구 번 충전재
-1.932601	삼십구 번 치관
-1.932601	삼십구 번 치근
-1.990592	삼십구 번 치면
-2.358569	삼십구 번 치석
-1.990592	삼십구 번 치수
-1.631571	삼십구 번 치은
-2.057539	삼십구 번 치은판
-2.057539	삼십구 번 치조골
-2.23259	삼십구 번 치주소파
-2.23259	삼십구 번 칠
-1.932601	삼십구 번 침윤
-2.23259	삼십구 번 파노라마
-2.23259	삼십구 번 파철편
-2.23259	삼십구 번 팔
-1.932601	삼십구 번 포스트
-1.932601	삼십구 번 혈당
-1.932601	삼십구 번 홈
-1.990592	삼십구 번 후
-0.7015172	삼십사 번 </s>
-2.231955	삼십사 번 <UNK>
-1.931966	삼십사 번 APF
-2.056905	삼십사 번 CR
-1.931966	삼십사 번 CT
-2.136086	삼십사 번 EPT
-2.231955	삼십사 번 GI
-2.357935	삼십사 번 REENDO
-2.231955	삼십사 번 SBS
-2.231955	삼십사 번 가압
-2.056905	삼십사 번 교익
-2.056905	삼십사 번 교합
-2.231955	삼십사 번 구
-1.630936	삼십사 번 구강
-2.056905	삼십사 번 구내염
-1.343694	삼십사 번 근
-2.357935	삼십사 번 난
-1.835056	삼십사 번 단순
-2.357935	삼십사 번 당일
-2.231955	삼십사 번 덴티스타
-2.357935	삼십사 번 동시
-2.231955	삼십사 번 드레싱
-2.231955	삼십사 번 러버댐
-2.357935	삼십사 번 로도질
-2.231955	삼십사 번 발수
-2.357935	삼십사 번 발치
-2.231955	삼십사 번 보철
-1.931966	삼십사 번 보철물
-1.931966	삼십사 번 보철재
-2.231955	삼십사 번 보통
-1.989958	삼십사 번 복잡
-2.357935	삼십사 번 봉합사
-2.231955	삼십사 번 부분
-1.989958	삼십사 번 비
-2.231955	삼십사 번 사
-2.231955	삼십사 번 사십
-2.231955	삼십사 번 삼
-2.357935	삼십사 번 삼십
-2.231955	삼십사 번 삼십구
-2.231955	삼십사 번 삼십삼
-2.357935	삼십사 번 삼십오
-2.231955	삼십사 번 삼십육
-2.231955	삼십사 번 삼십이
-2.231955	삼십사 번 삼십일
-2.231955	삼십사 번 삼십칠
-2.357935	삼십사 번 삼십팔
-2.357935	삼십사 번 세균막
-1.989958	삼십사 번 소아
-1.931966	삼십사 번 소염술
-2.231955	삼십사 번 십
-2.357935	삼십사 번 십구
-2.231955	삼십사 번 십사
-2.357935	삼십사 번 십삼
-2.231955	삼십사 번 십오
-2.231955	삼십사 번 십육
-2.231955	삼십사 번 십이
-2.231955	삼십사 번 십일
-2.231955	삼십사 번 십칠
-2.357935	삼십사 번 십팔
-2.231955	삼십사 번 아목시실린
-2.136086	삼십사 번 약관절
-2.357935	삼십사 번 영구
-2.231955	삼십사 번 영구접착
-2.231955	삼십사 번 오
-2.231955	삼십사 번 오구멘틴
-1.989958	삼십사 번 완전
-1.931966	삼십사 번 원외
-2.231955	삼십사 번 육
-2.231955	삼십사 번 응급
-2.357935	삼십사 번 이
-2.357935	삼십사 번 이십
-2.357935	삼십사 번 이십구
-2.357935	삼십사 번 이십사
-2.357935	삼십사 번 이십삼
-2.231955	삼십사 번 이십오
-2.231955	삼십사 번 이십육
-2.231955	삼십사 번 이십이
-2.231955	삼십사 번 이십일
-2.231955	삼십사 번 이십칠
-2.231955	삼십사 번 이십팔
-2.231955	삼십사 번 인레이
-2.357935	삼십사 번 일
-1.931966	삼십사 번 임시
-2.357935	삼십사 번 임플
-2.056905	삼십사 번 전달
-1.931966	삼십사 번 지각
-2.357935	삼십사 번 진정
-2.231955	삼십사 번 충전
-1.931966	삼십사 번 충전재
-1.989958	삼십사 번 치관
-1.931966	삼십사 번 치근
-1.989958	삼십사 번 치면
-2.357935	삼십사 번 치석
-1.989958	삼십사 번 치수
-1.721113	삼십사 번 치은
-1.989958	삼십사 번 치은판
-1.989958	삼십사 번 치조골
-2.357935	삼십사 번 치주소파
-2.231955	삼십사 번 칠
-1.931966	삼십사 번 침윤
-2.357935	삼십사 번 파노라마
-2.231955	삼십사 번 파철편
-2.231955	삼십사 번 팔
-1.931966	삼십사 번 포스트
-1.989958	삼십사 번 혈당
-1.989958	삼십사 번 홈
-2.056905	삼십사 번 후
-0.6919394	삼십삼 번 </s>
-2.225559	삼십삼 번 <UNK>
-1.983562	삼십삼 번 APF
-1.983562	삼십삼 번 CR
-1.983562	삼십삼 번 CT
-1.983562	삼십삼 번 EPT
-2.351539	삼십삼 번 GI
-2.351539	삼십삼 번 REENDO
-2.225559	삼십삼 번 SBS
-2.351539	삼십삼 번 가압
-1.983562	삼십삼 번 교익
-2.050509	삼십삼 번 교합
-2.225559	삼십삼 번 구
-1.62454	삼십삼 번 구강
-1.92557	삼십삼 번 구내염
-1.43072	삼십삼 번 근
-2.225559	삼십삼 번 난
-1.787267	삼십삼 번 단순
-2.351539	삼십삼 번 당일
-2.351539	삼십삼 번 덴티스타
-2.225559	삼십삼 번 동시
-2.225559	삼십삼 번 드레싱
-2.225559	삼십삼 번 러버댐
-2.52763	삼십삼 번 로도질
-2.225559	삼십삼 번 발수
-2.225559	삼십삼 번 발치
-2.225559	삼십삼 번 보철
-1.983562	삼십삼 번 보철물
-1.92557	삼십삼 번 보철재
-2.225559	삼십삼 번 보통
-1.92557	삼십삼 번 복잡
-2.225559	삼십삼 번 봉합사
-2.225559	삼십삼 번 부분
-2.12969	삼십삼 번 비
-2.225559	삼십삼 번 사
-2.225559	삼십삼 번 사십
-2.225559	삼십삼 번 삼
-2.52763	삼십삼 번 삼십
-2.351539	삼십삼 번 삼십구
-2.351539	삼십삼 번 삼십사
-2.52763	삼십삼 번 삼십오
-2.225559	삼십삼 번 삼십육
-2.225559	삼십삼 번 삼십이
-2.52763	삼십삼 번 삼십일
-2.225559	삼십삼 번 삼십칠
-2.351539	삼십삼 번 삼십팔
-2.225559	삼십삼 번 세균막
-1.983562	삼십삼 번 소아
-1.983562	삼십삼 번 소염술
-2.225559	삼십삼 번 십
-2.351539	삼십삼 번 십구
-2.225559	삼십삼 번 십사
-2.225559	삼십삼 번 십삼
-2.351539	삼십삼 번 십오
-2.351539	삼십삼 번 십육
-2.225559	삼십삼 번 십이
-2.225559	삼십삼 번 십일
-2.225559	삼십삼 번 십칠
-2.351539	삼십삼 번 십팔
-2.351539	삼십삼 번 아목시실린
-1.983562	삼십삼 번 약관절
-2.225559	삼십삼 번 영구
-2.225559	삼십삼 번 영구접착
-2.225559	삼십삼 번 오
-2.351539	삼십삼 번 오구멘틴
-1.983562	삼십삼 번 완전
-2.050509	삼십삼 번 원외
-2.52763	삼십삼 번 육
-2.225559	삼십삼 번 응급
-2.225559	삼십삼 번 이
-2.225559	삼십삼 번 이십
-2.225559	삼십삼 번 이십구
-2.225559	삼십삼 번 이십사
-2.351539	삼십삼 번 이십삼
-2.351539	삼십삼 번 이십오
-2.225559	삼십삼 번 이십육
-2.225559	삼십삼 번 이십이
-2.225559	삼십삼 번 이십일
-2.351539	삼십삼 번 이십칠
-2.225559	삼십삼 번 이십팔
-2.225559	삼십삼 번 인레이
-2.225559	삼십삼 번 일
-1.92557	삼십삼 번 임시
-2.351539	삼십삼 번 임플
-2.050509	삼십삼 번 전달
-1.983562	삼십삼 번 지각
-2.351539	삼십삼 번 진정
-2.351539	삼십삼 번 충전
-1.92557	삼십삼 번 충전재
-1.983562	삼십삼 번 치관
-1.983562	삼십삼 번 치근
-1.92557	삼십삼 번 치면
-2.225559	삼십삼 번 치석
-2.12969	삼십삼 번 치수
-1.682532	삼십삼 번 치은
-2.050509	삼십삼 번 치은판
-1.92557	삼십삼 번 치조골
-2.351539	삼십삼 번 치주소파
-2.225559	삼십삼 번 칠
-1.983562	삼십삼 번 침윤
-2.225559	삼십삼 번 파노라마
-2.225559	삼십삼 번 파철편
-2.351539	삼십삼 번 팔
-1.92557	삼십삼 번 포스트
-1.92557	삼십삼 번 혈당
-1.983562	삼십삼 번 홈
-1.983562	삼십삼 번 후
-0.7110257	삼십오 번 </s>
-2.364238	삼십오 번 <UNK>
-1.938269	삼십오 번 APF
-1.938269	삼십오 번 CR
-1.996261	삼십오 번 CT
-1.996261	삼십오 번 EPT
-2.364238	삼십오 번 GI
-2.364238	삼십오 번 REENDO
-2.238259	삼십오 번 SBS
-2.364238	삼십오 번 가압
-1.938269	삼십오 번 교익
-1.996261	삼십오 번 교합
-2.238259	삼십오 번 구
-1.637239	삼십오 번 구강
-2.063208	삼십오 번 구내염
-1.394201	삼십오 번 근
-2.238259	삼십오 번 난
-1.799967	삼십오 번 단순
-2.238259	삼십오 번 당일
-2.238259	삼십오 번 덴티스타
-2.238259	삼십오 번 동시
-2.238259	삼십오 번 드레싱
-2.364238	삼십오 번 러버댐
-2.364238	삼십오 번 로도질
-2.238259	삼십오 번 발수
-2.238259	삼십오 번 발치
-2.540329	삼십오 번 보철
-2.063208	삼십오 번 보철물
-1.938269	삼십오 번 보철재
-2.238259	삼십오 번 보통
-1.938269	삼십오 번 복잡
-2.364238	삼십오 번 봉합사
-2.238259	삼십오 번 부분
-1.996261	삼십오 번 비
-2.238259	삼십오 번 사
-2.238259	삼십오 번 사십
-2.238259	삼십오 번 삼
-2.364238	삼십오 번 삼십
-2.238259	삼십오 번 삼십구
-2.364238	삼십오 번 삼십사
-2.238259	삼십오 번 삼십삼
-2.364238	삼십오 번 삼십육
-2.238259	삼십오 번 삼십이
-2.238259	삼십오 번 삼십일
-2.238259	삼십오 번 삼십칠
-2.238259	삼십오 번 삼십팔
-2.238259	삼십오 번 세균막
-1.938269	삼십오 번 소아
-2.063208	삼십오 번 소염술
-2.238259	삼십오 번 십
-2.238259	삼십오 번 십구
-2.364238	삼십오 번 십사
-2.238259	삼십오 번 십삼
-2.364238	삼십오 번 십오
-2.238259	삼십오 번 십육
-2.238259	삼십오 번 십이
-2.238259	삼십오 번 십일
-2.238259	삼십오 번 십칠
-2.238259	삼십오 번 십팔
-2.364238	삼십오 번 아목시실린
-2.063208	삼십오 번 약관절
-2.364238	삼십오 번 영구
-2.238259	삼십오 번 영구접착
-2.364238	삼십오 번 오
-2.238259	삼십오 번 오구멘틴
-1.938269	삼십오 번 완전
-1.938269	삼십오 번 원외
-2.238259	삼십오 번 육
-2.238259	삼십오 번 응급
-2.364238	삼십오 번 이
-2.238259	삼십오 번 이십
-2.238259	삼십오 번 이십구
-2.364238	삼십오 번 이십사
-2.238259	삼십오 번 이십삼
-2.238259	삼십오 번 이십오
-2.238259	삼십오 번 이십육
-2.238259	삼십오 번 이십이
-2.238259	삼십오 번 이십일
-2.238259	삼십오 번 이십칠
-2.238259	삼십오 번 이십팔
-2.238259	삼십오 번 인레이
-2.238259	삼십오 번 일
-1.938269	삼십오 번 임시
-2.540329	삼십오 번 임플
-1.938269	삼십오 번 전달
-2.14239	삼십오 번 지각
-2.238259	삼십오 번 진정
-2.364238	삼십오 번 충전
-1.938269	삼십오 번 충전재
-1.996261	삼십오 번 치관
-1.938269	삼십오 번 치근
-1.996261	삼십오 번 치면
-2.238259	삼십오 번 치석
-1.938269	삼십오 번 치수
-1.762178	삼십오 번 치은
-1.938269	삼십오 번 치은판
-1.938269	삼십오 번 치조골
-2.238259	삼십오 번 치주소파
-2.238259	삼십오 번 칠
-1.938269	삼십오 번 침윤
-2.238259	삼십오 번 파노라마
-2.238259	삼십오 번 파철편
-2.238259	삼십오 번 팔
-1.938269	삼십오 번 포스트
-2.063208	삼십오 번 혈당
-1.938269	삼십오 번 홈
-1.938269	삼십오 번 후
-0.6921403	삼십육 번 </s>
-2.364238	삼십육 번 <UNK>
-1.938269	삼십육 번 APF
-1.938269	삼십육 번 CR
-1.996261	삼십육 번 CT
-1.938269	삼십육 번 EPT
-2.238259	삼십육 번 GI
-2.364238	삼십육 번 REENDO
-2.238259	삼십육 번 SBS
-2.364238	삼십육 번 가압
-2.063208	삼십육 번 교익
-1.996261	삼십육 번 교합
-2.238259	삼십육 번 구
-1.695231	삼십육 번 구강
-1.996261	삼십육 번 구내염
-1.394201	삼십육 번 근
-2.238259	삼십육 번 난
-1.762178	삼십육 번 단순
-2.238259	삼십육 번 당일
-2.238259	삼십육 번 덴티스타
-2.238259	삼십육 번 동시
-2.238259	삼십육 번 드레싱
-2.364238	삼십육 번 러버댐
-2.364238	삼십육 번 로도질
-2.238259	삼십육 번 발수
-2.238259	삼십육 번 발치
-2.540329	삼십육 번 보철
-2.063208	삼십육 번 보철물
-1.938269	삼십육 번 보철재
-2.238259	삼십육 번 보통
-1.996261	삼십육 번 복잡
-2.238259	삼십육 번 봉합사
-2.238259	삼십육 번 부분
-1.996261	삼십육 번 비
-2.238259	삼십육 번 사
-2.364238	삼십육 번 사십
-2.364238	삼십육 번 삼
-2.364238	삼십육 번 삼십
-2.540329	삼십육 번 삼십구
-2.238259	삼십육 번 삼십사
-2.364238	삼십육 번 삼십삼
-2.364238	삼십육 번 삼십오
-2.238259	삼십육 번 삼십이
-2.238259	삼십육 번 삼십일
-2.238259	삼십육 번 삼십칠
-2.238259	삼십육 번 삼십팔
-2.238259	삼십육 번 세균막
-2.14239	삼십육 번 소아
-2.063208	삼십육 번 소염술
-2.238259	삼십육 번 십
-2.238259	삼십육 번 십구
-2.238259	삼십육 번 십사
-2.238259	삼십육 번 십삼
-2.238259	삼십육 번 십오
-2.238259	삼십육 번 십육
-2.238259	삼십육 번 십이
-2.238259	삼십육 번 십일
-2.364238	삼십육 번 십칠
-2.238259	삼십육 번 십팔
-2.238259	삼십육 번 아목시실린
-1.938269	삼십육 번 약관절
-2.364238	삼십육 번 영구
-2.238259	삼십육 번 영구접착
-2.364238	삼십육 번 오
-2.238259	삼십육 번 오구멘틴
-1.938269	삼십육 번 완전
-1.996261	삼십육 번 원외
-2.238259	삼십육 번 육
-2.238259	삼십육 번 응급
-2.364238	삼십육 번 이
-2.364238	삼십육 번 이십
-2.238259	삼십육 번 이십구
-2.238259	삼십육 번 이십사
-2.238259	삼십육 번 이십삼
-2.238259	삼십육 번 이십오
-2.238259	삼십육 번 이십육
-2.540329	삼십육 번 이십이
-2.238259	삼십육 번 이십일
-2.238259	삼십육 번 이십칠
-2.364238	삼십육 번 이십팔
-2.238259	삼십육 번 인레이
-2.238259	삼십육 번 일
-1.938269	삼십육 번 임시
-2.238259	삼십육 번 임플
-1.996261	삼십육 번 전달
-1.996261	삼십육 번 지각
-2.238259	삼십육 번 진정
-2.238259	삼십육 번 충전
-1.938269	삼십육 번 충전재
-1.938269	삼십육 번 치관
-1.938269	삼십육 번 치근
-1.938269	삼십육 번 치면
-2.238259	삼십육 번 치석
-1.938269	삼십육 번 치수
-1.665268	삼십육 번 치은
-1.996261	삼십육 번 치은판
-1.996261	삼십육 번 치조골
-2.364238	삼십육 번 치주소파
-2.364238	삼십육 번 칠
-1.938269	삼십육 번 침윤
-2.238259	삼십육 번 파노라마
-2.238259	삼십육 번 파철편
-2.238259	삼십육 번 팔
-1.938269	삼십육 번 포스트
-2.14239	삼십육 번 혈당
-1.996261	삼십육 번 홈
-2.063208	삼십육 번 후
-0.6778111	삼십이 번 </s>
-2.230046	삼십이 번 <UNK>
-1.930057	삼십이 번 APF
-1.930057	삼십이 번 CR
-1.930057	삼십이 번 CT
-2.054996	삼십이 번 EPT
-2.230046	삼십이 번 GI
-2.230046	삼십이 번 REENDO
-2.230046	삼십이 번 SBS
-2.230046	삼십이 번 가압
-1.988049	삼십이 번 교익
-1.930057	삼십이 번 교합
-2.230046	삼십이 번 구
-1.657056	삼십이 번 구강
-1.988049	삼십이 번 구내염
-1.385989	삼십이 번 근
-2.230046	삼십이 번 난
-1.791754	삼십이 번 단순
-2.230046	삼십이 번 당일
-2.230046	삼십이 번 덴티스타
-2.230046	삼십이 번 동시
-2.230046	삼십이 번 드레싱
-2.356026	삼십이 번 러버댐
-2.230046	삼십이 번 로도질
-2.230046	삼십이 번 발수
-2.230046	삼십이 번 발치
-2.356026	삼십이 번 보철
-2.054996	삼십이 번 보철물
-1.988049	삼십이 번 보철재
-2.230046	삼십이 번 보통
-1.930057	삼십이 번 복잡
-2.230046	삼십이 번 봉합사
-2.532117	삼십이 번 부분
-1.988049	삼십이 번 비
-2.230046	삼십이 번 사
-2.532117	삼십이 번 사십
-2.356026	삼십이 번 삼
-2.230046	삼십이 번 삼십
-2.230046	삼십이 번 삼십구
-2.356026	삼십이 번 삼십사
-2.230046	삼십이 번 삼십삼
-2.356026	삼십이 번 삼십오
-2.356026	삼십이 번 삼십육
-2.230046	삼십이 번 삼십일
-2.532117	삼십이 번 삼십칠
-2.230046	삼십이 번 삼십팔
-2.230046	삼십이 번 세균막
-1.930057	삼십이 번 소아
-1.930057	삼십이 번 소염술
-2.230046	삼십이 번 십
-2.356026	삼십이 번 십구
-2.356026	삼십이 번 십사
-2.532117	삼십이 번 십삼
-2.532117	삼십이 번 십오
-2.230046	삼십이 번 십육
-2.356026	삼십이 번 십이
-2.230046	삼십이 번 십일
-2.230046	삼십이 번 십칠
-2.356026	삼십이 번 십팔
-2.230046	삼십이 번 아목시실린
-1.988049	삼십이 번 약관절
-2.356026	삼십이 번 영구
-2.356026	삼십이 번 영구접착
-2.532117	삼십이 번 오
-2.230046	삼십이 번 오구멘틴
-1.988049	삼십이 번 완전
-1.988049	삼십이 번 원외
-2.230046	삼십이 번 육
-2.532117	삼십이 번 응급
-2.230046	삼십이 번 이
-2.356026	삼십이 번 이십
-2.356026	삼십이 번 이십구
-2.230046	삼십이 번 이십사
-2.230046	삼십이 번 이십삼
-2.356026	삼십이 번 이십오
-2.230046	삼십이 번 이십육
-2.356026	삼십이 번 이십이
-2.356026	삼십이 번 이십일
-2.356026	삼십이 번 이십칠
-2.356026	삼십이 번 이십팔
-2.230046	삼십이 번 인레이
-2.230046	삼십이 번 일
-1.988049	삼십이 번 임시
-2.230046	삼십이 번 임플
-1.988049	삼십이 번 전달
-1.930057	삼십이 번 지각
-2.230046	삼십이 번 진정
-2.532117	삼십이 번 충전
-2.054996	삼십이 번 충전재
-1.930057	삼십이 번 치관
-1.930057	삼십이 번 치근
-1.930057	삼십이 번 치면
-2.532117	삼십이 번 치석
-1.930057	삼십이 번 치수
-1.687019	삼십이 번 치은
-2.054996	삼십이 번 치은판
-2.134177	삼십이 번 치조골
-2.356026	삼십이 번 치주소파
-2.230046	삼십이 번 칠
-1.930057	삼십이 번 침윤
-2.230046	삼십이 번 파노라마
-2.230046	삼십이 번 파철편
-2.356026	삼십이 번 팔
-1.930057	삼십이 번 포스트
-1.988049	삼십이 번 혈당
-1.988049	삼십이 번 홈
-2.054996	삼십이 번 후
-0.6946052	삼십일 번 </s>
-2.237632	삼십일 번 <UNK>
-2.062582	삼십일 번 APF
-1.937643	삼십일 번 CR
-1.937643	삼십일 번 CT
-1.995635	삼십일 번 EPT
-2.237632	삼십일 번 GI
-2.237632	삼십일 번 REENDO
-2.237632	삼십일 번 SBS
-2.363612	삼십일 번 가압
-1.937643	삼십일 번 교익
-1.995635	삼십일 번 교합
-2.363612	삼십일 번 구
-1.664642	삼십일 번 구강
-1.995635	삼십일 번 구내염
-1.378335	삼십일 번 근
-2.237632	삼십일 번 난
-1.761552	삼십일 번 단순
-2.237632	삼십일 번 당일
-2.363612	삼십일 번 덴티스타
-2.237632	삼십일 번 동시
-2.363612	삼십일 번 드레싱
-2.237632	삼십일 번 러버댐
-2.363612	삼십일 번 로도질
-2.237632	삼십일 번 발수
-2.237632	삼십일 번 발치
-2.237632	삼십일 번 보철
-1.937643	삼십일 번 보철물
-1.937643	삼십일 번 보철재
-2.363612	삼십일 번 보통
-1.995635	삼십일 번 복잡
-2.363612	삼십일 번 봉합사
-2.237632	삼십일 번 부분
-2.062582	삼십일 번 비
-2.237632	삼십일 번 사
-2.237632	삼십일 번 사십
-2.237632	삼십일 번 삼
-2.539703	삼십일 번 삼십
-2.237632	삼십일 번 삼십구
-2.237632	삼십일 번 삼십사
-2.237632	삼십일 번 삼십오
-2.237632	삼십일 번 삼십육
-2.363612	삼십일 번 삼십이
-2.237632	삼십일 번 삼십칠
-2.237632	삼십일 번 삼십팔
-2.539703	삼십일 번 세균막
-1.995635	삼십일 번 소아
-1.937643	삼십일 번 소염술
-2.363612	삼십일 번 십
-2.363612	삼십일 번 십구
-2.237632	삼십일 번 십사
-2.237632	삼십일 번 십삼
-2.237632	삼십일 번 십오
-2.237632	삼십일 번 십육
-2.363612	삼십일 번 십이
-2.237632	삼십일 번 십일
-2.237632	삼십일 번 십칠
-2.237632	삼십일 번 십팔
-2.363612	삼십일 번 아목시실린
-1.995635	삼십일 번 약관절
-2.237632	삼십일 번 영구
-2.363612	삼십일 번 영구접착
-2.237632	삼십일 번 오
-2.237632	삼십일 번 오구멘틴
-1.937643	삼십일 번 완전
-1.995635	삼십일 번 원외
-2.237632	삼십일 번 육
-2.363612	삼십일 번 응급
-2.237632	삼십일 번 이
-2.237632	삼십일 번 이십
-2.237632	삼십일 번 이십구
-2.363612	삼십일 번 이십사
-2.363612	삼십일 번 이십삼
-2.363612	삼십일 번 이십오
-2.539703	삼십일 번 이십육
-2.237632	삼십일 번 이십이
-2.363612	삼십일 번 이십일
-2.237632	삼십일 번 이십칠
-2.237632	삼십일 번 이십팔
-2.237632	삼십일 번 인레이
-2.237632	삼십일 번 일
-1.995635	삼십일 번 임시
-2.237632	삼십일 번 임플
-1.937643	삼십일 번 전달
-2.062582	삼십일 번 지각
-2.237632	삼십일 번 진정
-2.237632	삼십일 번 충전
-1.995635	삼십일 번 충전재
-2.062582	삼십일 번 치관
-1.937643	삼십일 번 치근
-1.995635	삼십일 번 치면
-2.363612	삼십일 번 치석
-1.937643	삼십일 번 치수
-1.664642	삼십일 번 치은
-1.937643	삼십일 번 치은판
-1.937643	삼십일 번 치조골
-2.237632	삼십일 번 치주소파
-2.237632	삼십일 번 칠
-1.937643	삼십일 번 침윤
-2.237632	삼십일 번 파노라마
-2.363612	삼십일 번 파철편
-2.237632	삼십일 번 팔
-2.062582	삼십일 번 포스트
-1.937643	삼십일 번 혈당
-1.937643	삼십일 번 홈
-1.995635	삼십일 번 후
-0.7157502	삼십칠 번 </s>
-2.233223	삼십칠 번 <UNK>
-1.933234	삼십칠 번 APF
-1.933234	삼십칠 번 CR
-2.058173	삼십칠 번 CT
-1.933234	삼십칠 번 EPT
-2.233223	삼십칠 번 GI
-2.233223	삼십칠 번 REENDO
-2.233223	삼십칠 번 SBS
-2.233223	삼십칠 번 가압
-1.991226	삼십칠 번 교익
-1.991226	삼십칠 번 교합
-2.233223	삼십칠 번 구
-1.660233	삼십칠 번 구강
-2.058173	삼십칠 번 구내염
-1.359203	삼십칠 번 근
-2.359203	삼십칠 번 난
-1.794931	삼십칠 번 단순
-2.233223	삼십칠 번 당일
-2.233223	삼십칠 번 덴티스타
-2.233223	삼십칠 번 동시
-2.359203	삼십칠 번 드레싱
-2.233223	삼십칠 번 러버댐
-2.359203	삼십칠 번 로도질
-2.233223	삼십칠 번 발수
-2.233223	삼십칠 번 발치
-2.233223	삼십칠 번 보철
-1.933234	삼십칠 번 보철물
-1.933234	삼십칠 번 보철재
-2.233223	삼십칠 번 보통
-1.933234	삼십칠 번 복잡
-2.359203	삼십칠 번 봉합사
-2.233223	삼십칠 번 부분
-1.991226	삼십칠 번 비
-2.233223	삼십칠 번 사
-2.233223	삼십칠 번 사십
-2.233223	삼십칠 번 삼
-2.233223	삼십칠 번 삼십
-2.233223	삼십칠 번 삼십구
-2.535294	삼십칠 번 삼십사
-2.359203	삼십칠 번 삼십삼
-2.233223	삼십칠 번 삼십오
-2.233223	삼십칠 번 삼십육
-2.233223	삼십칠 번 삼십이
-2.233223	삼십칠 번 삼십일
-2.233223	삼십칠 번 삼십팔
-2.359203	삼십칠 번 세균막
-1.991226	삼십칠 번 소아
-1.933234	삼십칠 번 소염술
-2.233223	삼십칠 번 십
-2.535294	삼십칠 번 십구
-2.359203	삼십칠 번 십사
-2.359203	삼십칠 번 십삼
-2.359203	삼십칠 번 십오
-2.233223	삼십칠 번 십육
-2.233223	삼십칠 번 십이
-2.535294	삼십칠 번 십일
-2.233223	삼십칠 번 십칠
-2.359203	삼십칠 번 십팔
-2.359203	삼십칠 번 아목시실린
-1.991226	삼십칠 번 약관절
-2.233223	삼십칠 번 영구
-2.233223	삼십칠 번 영구접착
-2.359203	삼십칠 번 오
-2.535294	삼십칠 번 오구멘틴
-1.991226	삼십칠 번 완전
-1.991226	삼십칠 번 원외
-2.233223	삼십칠 번 육
-2.359203	삼십칠 번 응급
-2.233223	삼십칠 번 이
-2.233223	삼십칠 번 이십
-2.233223	삼십칠 번 이십구
-2.233223	삼십칠 번 이십사
-2.233223	삼십칠 번 이십삼
-2.233223	삼십칠 번 이십오
-2.359203	삼십칠 번 이십육
-2.233223	삼십칠 번 이십이
-2.359203	삼십칠 번 이십일
-2.233223	삼십칠 번 이십칠
-2.359203	삼십칠 번 이십팔
-2.359203	삼십칠 번 인레이
-2.233223	삼십칠 번 일
-2.058173	삼십칠 번 임시
-2.359203	삼십칠 번 임플
-1.991226	삼십칠 번 전달
-1.933234	삼십칠 번 지각
-2.233223	삼십칠 번 진정
-2.233223	삼십칠 번 충전
-1.933234	삼십칠 번 충전재
-2.058173	삼십칠 번 치관
-1.933234	삼십칠 번 치근
-1.933234	삼십칠 번 치면
-2.359203	삼십칠 번 치석
-1.933234	삼십칠 번 치수
-1.722381	삼십칠 번 치은
-1.933234	삼십칠 번 치은판
-1.933234	삼십칠 번 치조골
-2.233223	삼십칠 번 치주소파
-2.233223	삼십칠 번 칠
-2.058173	삼십칠 번 침윤
-2.233223	삼십칠 번 파노라마
-2.359203	삼십칠 번 파철편
-2.233223	삼십칠 번 팔
-1.933234	삼십칠 번 포스트
-1.991226	삼십칠 번 혈당
-1.933234	삼십칠 번 홈
-1.991226	삼십칠 번 후
-0.6820106	삼십팔 번 </s>
-2.228129	삼십팔 번 <UNK>
-1.986132	삼십팔 번 APF
-1.92814	삼십팔 번 CR
-2.053078	삼십팔 번 CT
-1.986132	삼십팔 번 EPT
-2.228129	삼십팔 번 GI
-2.354108	삼십팔 번 REENDO
-2.228129	삼십팔 번 SBS
-2.354108	삼십팔 번 가압
-1.986132	삼십팔 번 교익
-1.92814	삼십팔 번 교합
-2.228129	삼십팔 번 구
-1.685102	삼십팔 번 구강
-2.053078	삼십팔 번 구내염
-1.416256	삼십팔 번 근
-2.354108	삼십팔 번 난
-1.789837	삼십팔 번 단순
-2.354108	삼십팔 번 당일
-2.228129	삼십팔 번 덴티스타
-2.228129	삼십팔 번 동시
-2.354108	삼십팔 번 드레싱
-2.228129	삼십팔 번 러버댐
-2.228129	삼십팔 번 로도질
-2.354108	삼십팔 번 발수
-2.228129	삼십팔 번 발치
-2.5302	삼십팔 번 보철
-1.92814	삼십팔 번 보철물
-1.986132	삼십팔 번 보철재
-2.354108	삼십팔 번 보통
-1.92814	삼십팔 번 복잡
-2.228129	삼십팔 번 봉합사
-2.228129	삼십팔 번 부분
-1.986132	삼십팔 번 비
-2.354108	삼십팔 번 사
-2.228129	삼십팔 번 사십
-2.354108	삼십팔 번 삼
-2.228129	삼십팔 번 삼십
-2.354108	삼십팔 번 삼십구
-2.228129	삼십팔 번 삼십사
-2.228129	삼십팔 번 삼십삼
-2.354108	삼십팔 번 삼십오
-2.354108	삼십팔 번 삼십육
-2.228129	삼십팔 번 삼십이
-2.228129	삼십팔 번 삼십일
-2.354108	삼십팔 번 삼십칠
-2.354108	삼십팔 번 세균막
-1.986132	삼십팔 번 소아
-1.92814	삼십팔 번 소염술
-2.228129	삼십팔 번 십
-2.228129	삼십팔 번 십구
-2.228129	삼십팔 번 십사
-2.354108	삼십팔 번 십삼
-2.228129	삼십팔 번 십오
-2.228129	삼십팔 번 십육
-2.228129	삼십팔 번 십이
-2.228129	삼십팔 번 십일
-2.228129	삼십팔 번 십칠
-2.354108	삼십팔 번 십팔
-2.228129	삼십팔 번 아목시실린
-1.92814	삼십팔 번 약관절
-2.354108	삼십팔 번 영구
-2.228129	삼십팔 번 영구접착
-2.228129	삼십팔 번 오
-2.5302	삼십팔 번 오구멘틴
-1.92814	삼십팔 번 완전
-1.986132	삼십팔 번 원외
-2.5302	삼십팔 번 육
-2.228129	삼십팔 번 응급
-2.354108	삼십팔 번 이
-2.228129	삼십팔 번 이십
-2.228129	삼십팔 번 이십구
-2.354108	삼십팔 번 이십사
-2.354108	삼십팔 번 이십삼
-2.5302	삼십팔 번 이십오
-2.228129	삼십팔 번 이십육
-2.354108	삼십팔 번 이십이
-2.354108	삼십팔 번 이십일
-2.228129	삼십팔 번 이십칠
-2.228129	삼십팔 번 이십팔
-2.5302	삼십팔 번 인레이
-2.354108	삼십팔 번 일
-1.986132	삼십팔 번 임시
-2.228129	삼십팔 번 임플
-1.92814	삼십팔 번 전달
-2.053078	삼십팔 번 지각
-2.228129	삼십팔 번 진정
-2.5302	삼십팔 번 충전
-1.986132	삼십팔 번 충전재
-1.986132	삼십팔 번 치관
-2.13226	삼십팔 번 치근
-1.92814	삼십팔 번 치면
-2.228129	삼십팔 번 치석
-1.986132	삼십팔 번 치수
-1.655138	삼십팔 번 치은
-1.92814	삼십팔 번 치은판
-1.92814	삼십팔 번 치조골
-2.354108	삼십팔 번 치주소파
-2.228129	삼십팔 번 칠
-1.92814	삼십팔 번 침윤
-2.5302	삼십팔 번 파노라마
-2.354108	삼십팔 번 파철편
-2.228129	삼십팔 번 팔
-1.986132	삼십팔 번 포스트
-1.986132	삼십팔 번 혈당
-1.986132	삼십팔 번 홈
-1.92814	삼십팔 번 후
-0.6940137	십 번 </s>
-2.240132	십 번 <UNK>
-1.998135	십 번 APF
-1.940143	십 번 CR
-1.998135	십 번 CT
-1.940143	십 번 EPT
-2.240132	십 번 GI
-2.240132	십 번 REENDO
-2.240132	십 번 SBS
-2.240132	십 번 가압
-1.998135	십 번 교익
-1.940143	십 번 교합
-2.240132	십 번 구
-1.729289	십 번 구강
-1.940143	십 번 구내염
-1.366112	십 번 근
-2.240132	십 번 난
-1.80184	십 번 단순
-2.240132	십 번 당일
-2.366112	십 번 덴티스타
-2.240132	십 번 동시
-2.240132	십 번 드레싱
-2.240132	십 번 러버댐
-2.240132	십 번 로도질
-2.240132	십 번 발수
-2.240132	십 번 발치
-2.240132	십 번 보철
-2.065082	십 번 보철물
-1.940143	십 번 보철재
-2.240132	십 번 보통
-2.065082	십 번 복잡
-2.366112	십 번 봉합사
-2.240132	십 번 부분
-2.144263	십 번 비
-2.240132	십 번 사
-2.542203	십 번 사십
-2.240132	십 번 삼
-2.240132	십 번 삼십
-2.240132	십 번 삼십구
-2.240132	십 번 삼십사
-2.366112	십 번 삼십삼
-2.366112	십 번 삼십오
-2.240132	십 번 삼십육
-2.240132	십 번 삼십이
-2.240132	십 번 삼십일
-2.542203	십 번 삼십칠
-2.366112	십 번 삼십팔
-2.542203	십 번 세균막
-1.940143	십 번 소아
-1.940143	십 번 소염술
-2.240132	십 번 십구
-2.240132	십 번 십사
-2.366112	십 번 십삼
-2.240132	십 번 십오
-2.240132	십 번 십육
-2.366112	십 번 십이
-2.240132	십 번 십일
-2.240132	십 번 십칠
-2.240132	십 번 십팔
-2.366112	십 번 아목시실린
-1.998135	십 번 약관절
-2.366112	십 번 영구
-2.240132	십 번 영구접착
-2.240132	십 번 오
-2.240132	십 번 오구멘틴
-1.998135	십 번 완전
-1.998135	십 번 원외
-2.366112	십 번 육
-2.240132	십 번 응급
-2.366112	십 번 이
-2.366112	십 번 이십
-2.366112	십 번 이십구
-2.240132	십 번 이십사
-2.240132	십 번 이십삼
-2.240132	십 번 이십오
-2.366112	십 번 이십육
-2.240132	십 번 이십이
-2.542203	십 번 이십일
-2.240132	십 번 이십칠
-2.240132	십 번 이십팔
-2.366112	십 번 인레이
-2.240132	십 번 일
-2.065082	십 번 임시
-2.240132	십 번 임플
-1.940143	십 번 전달
-1.940143	십 번 지각
-2.240132	십 번 진정
-2.366112	십 번 충전
-1.940143	십 번 충전재
-1.940143	십 번 치관
-1.998135	십 번 치근
-1.940143	십 번 치면
-2.240132	십 번 치석
-1.940143	십 번 치수
-1.667142	십 번 치은
-1.998135	십 번 치은판
-1.998135	십 번 치조골
-2.240132	십 번 치주소파
-2.542203	십 번 칠
-1.940143	십 번 침윤
-2.240132	십 번 파노라마
-2.240132	십 번 파철편
-2.240132	십 번 팔
-1.940143	십 번 포스트
-1.940143	십 번 혈당
-1.998135	십 번 홈
-1.998135	십 번 후
-0.7002454	십구 번 </s>
-2.356663	십구 번 <UNK>
-1.988686	십구 번 APF
-1.930694	십구 번 CR
-1.930694	십구 번 CT
-1.930694	십구 번 EPT
-2.356663	십구 번 GI
-2.230683	십구 번 REENDO
-2.230683	십구 번 SBS
-2.230683	십구 번 가압
-1.930694	십구 번 교익
-1.988686	십구 번 교합
-2.532754	십구 번 구
-1.629664	십구 번 구강
-1.988686	십구 번 구내염
-1.342423	십구 번 근
-2.230683	십구 번 난
-1.754603	십구 번 단순
-2.356663	십구 번 당일
-2.230683	십구 번 덴티스타
-2.230683	십구 번 동시
-2.230683	십구 번 드레싱
-2.356663	십구 번 러버댐
-2.230683	십구 번 로도질
-2.356663	십구 번 발수
-2.230683	십구 번 발치
-2.532754	십구 번 보철
-2.055633	십구 번 보철물
-1.988686	십구 번 보철재
-2.356663	십구 번 보통
-1.930694	십구 번 복잡
-2.230683	십구 번 봉합사
-2.230683	십구 번 부분
-1.988686	십구 번 비
-2.356663	십구 번 사
-2.230683	십구 번 사십
-2.230683	십구 번 삼
-2.356663	십구 번 삼십
-2.230683	십구 번 삼십구
-2.532754	십구 번 삼십사
-2.230683	십구 번 삼십삼
-2.356663	십구 번 삼십오
-2.356663	십구 번 삼십육
-2.230683	십구 번 삼십이
-2.230683	십구 번 삼십일
-2.230683	십구 번 삼십칠
-2.230683	십구 번 삼십팔
-2.532754	십구 번 세균막
-1.930694	십구 번 소아
-1.988686	십구 번 소염술
-2.356663	십구 번 십
-2.532754	십구 번 십사
-2.356663	십구 번 십삼
-2.230683	십구 번 십오
-2.356663	십구 번 십육
-2.230683	십구 번 십이
-2.356663	십구 번 십일
-2.230683	십구 번 십칠
-2.230683	십구 번 십팔
-2.356663	십구 번 아목시실린
-2.055633	십구 번 약관절
-2.356663	십구 번 영구
-2.230683	십구 번 영구접착
-2.230683	십구 번 오
-2.230683	십구 번 오구멘틴
-1.930694	십구 번 완전
-1.930694	십구 번 원외
-2.230683	십구 번 육
-2.230683	십구 번 응급
-2.356663	십구 번 이
-2.356663	십구 번 이십
-2.230683	십구 번 이십구
-2.356663	십구 번 이십사
-2.230683	십구 번 이십삼
-2.230683	십구 번 이십오
-2.230683	십구 번 이십육
-2.230683	십구 번 이십이
-2.230683	십구 번 이십일
-2.230683	십구 번 이십칠
-2.356663	십구 번 이십팔
-2.230683	십구 번 인레이
-2.356663	십구 번 일
-1.930694	십구 번 임시
-2.356663	십구 번 임플
-2.055633	십구 번 전달
-1.930694	십구 번 지각
-2.356663	십구 번 진정
-2.356663	십구 번 충전
-1.988686	십구 번 충전재
-1.988686	십구 번 치관
-1.930694	십구 번 치근
-1.988686	십구 번 치면
-2.230683	십구 번 치석
-2.055633	십구 번 치수
-1.687656	십구 번 치은
-1.930694	십구 번 치은판
-1.988686	십구 번 치조골
-2.230683	십구 번 치주소파
-1.988686	십구 번 침윤
-2.230683	십구 번 파노라마
-2.230683	십구 번 파철편
-2.230683	십구 번 팔
-1.988686	십구 번 포스트
-1.988686	십구 번 혈당
-1.930694	십구 번 홈
-1.988686	십구 번 후
-0.6870191	십사 번 </s>
-2.356026	십사 번 <UNK>
-1.930057	십사 번 APF
-1.930057	십사 번 CR
-1.988049	십사 번 CT
-1.930057	십사 번 EPT
-2.356026	십사 번 GI
-2.532117	십사 번 REENDO
-2.356026	십사 번 SBS
-2.230046	십사 번 가압
-1.930057	십사 번 교익
-2.054996	십사 번 교합
-2.230046	십사 번 구
-1.657056	십사 번 구강
-1.930057	십사 번 구내염
-1.356026	십사 번 근
-2.356026	십사 번 난
-1.833147	십사 번 단순
-2.230046	십사 번 당일
-2.532117	십사 번 덴티스타
-2.356026	십사 번 동시
-2.230046	십사 번 드레싱
-2.356026	십사 번 러버댐
-2.356026	십사 번 로도질
-2.230046	십사 번 발수
-2.356026	십사 번 발치
-2.230046	십사 번 보철
-2.054996	십사 번 보철물
-1.988049	십사 번 보철재
-2.356026	십사 번 보통
-1.930057	십사 번 복잡
-2.356026	십사 번 봉합사
-2.356026	십사 번 부분
-1.988049	십사 번 비
-2.356026	십사 번 사
-2.230046	십사 번 사십
-2.356026	십사 번 삼
-2.356026	십사 번 삼십
-2.230046	십사 번 삼십구
-2.230046	십사 번 삼십사
-2.356026	십사 번 삼십삼
-2.230046	십사 번 삼십오
-2.356026	십사 번 삼십육
-2.532117	십사 번 삼십이
-2.230046	십사 번 삼십일
-2.230046	십사 번 삼십칠
-2.230046	십사 번 삼십팔
-2.230046	십사 번 세균막
-1.930057	십사 번 소아
-1.930057	십사 번 소염술
-2.230046	십사 번 십
-2.356026	십사 번 십구
-2.356026	십사 번 십삼
-2.230046	십사 번 십오
-2.230046	십사 번 십육
-2.230046	십사 번 십이
-2.356026	십사 번 십일
-2.230046	십사 번 십칠
-2.230046	십사 번 십팔
-2.532117	십사 번 아목시실린
-1.988049	십사 번 약관절
-2.356026	십사 번 영구
-2.356026	십사 번 영구접착
-2.230046	십사 번 오
-2.230046	십사 번 오구멘틴
-2.134177	십사 번 완전
-1.930057	십사 번 원외
-2.230046	십사 번 육
-2.356026	십사 번 응급
-2.230046	십사 번 이
-2.356026	십사 번 이십
-2.230046	십사 번 이십구
-2.356026	십사 번 이십사
-2.230046	십사 번 이십삼
-2.230046	십사 번 이십오
-2.230046	십사 번 이십육
-2.356026	십사 번 이십이
-2.356026	십사 번 이십일
-2.230046	십사 번 이십칠
-2.230046	십사 번 이십팔
-2.356026	십사 번 인레이
-2.356026	십사 번 일
-1.930057	십사 번 임시
-2.356026	십사 번 임플
-1.988049	십사 번 전달
-1.988049	십사 번 지각
-2.356026	십사 번 진정
-2.230046	십사 번 충전
-1.988049	십사 번 충전재
-2.054996	십사 번 치관
-2.054996	십사 번 치근
-1.930057	십사 번 치면
-2.356026	십사 번 치석
-1.930057	십사 번 치수
-1.687019	십사 번 치은
-1.988049	십사 번 치은판
-1.930057	십사 번 치조골
-2.230046	십사 번 치주소파
-2.230046	십사 번 칠
-1.988049	십사 번 침윤
-2.230046	십사 번 파노라마
-2.230046	십사 번 파철편
-2.230046	십사 번 팔
-1.930057	십사 번 포스트
-1.988049	십사 번 혈당
-1.930057	십사 번 홈
-1.988049	십사 번 후
-0.6883693	십삼 번 </s>
-2.234488	십삼 번 <UNK>
-1.934498	십삼 번 APF
-1.99249	십삼 번 CR
-1.99249	십삼 번 CT
-1.934498	십삼 번 EPT
-2.360467	십삼 번 GI
-2.234488	십삼 번 REENDO
-2.536558	십삼 번 SBS
-2.360467	십삼 번 가압
-1.934498	십삼 번 교익
-1.934498	십삼 번 교합
-2.234488	십삼 번 구
-1.633469	십삼 번 구강
-2.059437	십삼 번 구내염
-1.39043	십삼 번 근
-2.360467	십삼 번 난
-1.796196	십삼 번 단순
-2.234488	십삼 번 당일
-2.360467	십삼 번 덴티스타
-2.234488	십삼 번 동시
-2.234488	십삼 번 드레싱
-2.360467	십삼 번 러버댐
-2.234488	십삼 번 로도질
-2.360467	십삼 번 발수
-2.234488	십삼 번 발치
-2.234488	십삼 번 보철
-1.934498	십삼 번 보철물
-1.99249	십삼 번 보철재
-2.234488	십삼 번 보통
-1.99249	십삼 번 복잡
-2.360467	십삼 번 봉합사
-2.234488	십삼 번 부분
-1.99249	십삼 번 비
-2.234488	십삼 번 사
-2.234488	십삼 번 사십
-2.360467	십삼 번 삼
-2.360467	십삼 번 삼십
-2.234488	십삼 번 삼십구
-2.234488	십삼 번 삼십삼
-2.360467	십삼 번 삼십오
-2.234488	십삼 번 삼십육
-2.536558	십삼 번 삼십이
-2.360467	십삼 번 삼십일
-2.234488	십삼 번 삼십칠
-2.360467	십삼 번 삼십팔
-2.234488	십삼 번 세균막
-1.934498	십삼 번 소아
-1.99249	십삼 번 소염술
-2.360467	십삼 번 십
-2.234488	십삼 번 십구
-2.234488	십삼 번 십사
-2.360467	십삼 번 십오
-2.234488	십삼 번 십육
-2.234488	십삼 번 십이
-2.360467	십삼 번 십일
-2.360467	십삼 번 십칠
-2.234488	십삼 번 십팔
-2.234488	십삼 번 아목시실린
-1.99249	십삼 번 약관절
-2.234488	십삼 번 영구
-2.234488	십삼 번 영구접착
-2.234488	십삼 번 오
-2.360467	십삼 번 오구멘틴
-1.99249	십삼 번 완전
-2.059437	십삼 번 원외
-2.234488	십삼 번 육
-2.360467	십삼 번 응급
-2.234488	십삼 번 이
-2.360467	십삼 번 이십
-2.360467	십삼 번 이십구
-2.234488	십삼 번 이십사
-2.234488	십삼 번 이십삼
-2.234488	십삼 번 이십오
-2.234488	십삼 번 이십육
-2.360467	십삼 번 이십이
-2.234488	십삼 번 이십일
-2.234488	십삼 번 이십칠
-2.234488	십삼 번 이십팔
-2.234488	십삼 번 인레이
-2.360467	십삼 번 일
-2.138618	십삼 번 임시
-2.234488	십삼 번 임플
-1.99249	십삼 번 전달
-1.99249	십삼 번 지각
-2.234488	십삼 번 진정
-2.234488	십삼 번 충전
-1.99249	십삼 번 충전재
-1.934498	십삼 번 치관
-1.934498	십삼 번 치근
-1.99249	십삼 번 치면
-2.360467	십삼 번 치석
-2.059437	십삼 번 치수
-1.69146	십삼 번 치은
-1.934498	십삼 번 치은판
-1.934498	십삼 번 치조골
-2.234488	십삼 번 치주소파
-2.360467	십삼 번 칠
-1.99249	십삼 번 침윤
-2.234488	십삼 번 파노라마
-2.234488	십삼 번 파철편
-2.234488	십삼 번 팔
-1.99249	십삼 번 포스트
-1.934498	십삼 번 혈당
-1.934498	십삼 번 홈
-1.934498	십삼 번 후
-0.7008541	십오 번 </s>
-2.237632	십오 번 <UNK>
-1.995635	십오 번 APF
-1.937643	십오 번 CR
-1.995635	십오 번 CT
-1.995635	십오 번 EPT
-2.363612	십오 번 GI
-2.237632	십오 번 REENDO
-2.237632	십오 번 SBS
-2.237632	십오 번 가압
-1.937643	십오 번 교익
-1.995635	십오 번 교합
-2.539703	십오 번 구
-1.664642	십오 번 구강
-1.995635	십오 번 구내염
-1.349372	십오 번 근
-2.237632	십오 번 난
-1.840733	십오 번 단순
-2.237632	십오 번 당일
-2.363612	십오 번 덴티스타
-2.363612	십오 번 동시
-2.237632	십오 번 드레싱
-2.363612	십오 번 러버댐
-2.237632	십오 번 로도질
-2.237632	십오 번 발수
-2.237632	십오 번 발치
-2.237632	십오 번 보철
-1.937643	십오 번 보철물
-1.995635	십오 번 보철재
-2.363612	십오 번 보통
-1.995635	십오 번 복잡
-2.237632	십오 번 봉합사
-2.363612	십오 번 부분
-1.937643	십오 번 비
-2.237632	십오 번 사
-2.539703	십오 번 사십
-2.237632	십오 번 삼
-2.237632	십오 번 삼십
-2.237632	십오 번 삼십구
-2.237632	십오 번 삼십사
-2.237632	십오 번 삼십삼
-2.237632	십오 번 삼십오
-2.363612	십오 번 삼십육
-2.363612	십오 번 삼십이
-2.237632	십오 번 삼십일
-2.363612	십오 번 삼십칠
-2.237632	십오 번 삼십팔
-2.237632	십오 번 세균막
-1.995635	십오 번 소아
-2.062582	십오 번 소염술
-2.539703	십오 번 십
-2.237632	십오 번 십구
-2.539703	십오 번 십사
-2.363612	십오 번 십삼
-2.363612	십오 번 십육
-2.237632	십오 번 십이
-2.237632	십오 번 십일
-2.363612	십오 번 십칠
-2.363612	십오 번 십팔
-2.237632	십오 번 아목시실린
-1.937643	십오 번 약관절
-2.237632	십오 번 영구
-2.237632	십오 번 영구접착
-2.237632	십오 번 오
-2.363612	십오 번 오구멘틴
-1.995635	십오 번 완전
-1.937643	십오 번 원외
-2.237632	십오 번 육
-2.363612	십오 번 응급
-2.237632	십오 번 이
-2.363612	십오 번 이십
-2.237632	십오 번 이십구
-2.363612	십오 번 이십사
-2.237632	십오 번 이십삼
-2.237632	십오 번 이십오
-2.237632	십오 번 이십육
-2.237632	십오 번 이십이
-2.237632	십오 번 이십일
-2.237632	십오 번 이십칠
-2.363612	십오 번 이십팔
-2.237632	십오 번 인레이
-2.237632	십오 번 일
-1.937643	십오 번 임시
-2.237632	십오 번 임플
-1.937643	십오 번 전달
-1.937643	십오 번 지각
-2.363612	십오 번 진정
-2.237632	십오 번 충전
-1.995635	십오 번 충전재
-1.937643	십오 번 치관
-1.995635	십오 번 치근
-1.937643	십오 번 치면
-2.363612	십오 번 치석
-2.062582	십오 번 치수
-1.636613	십오 번 치은
-1.995635	십오 번 치은판
-2.141763	십오 번 치조골
-2.237632	십오 번 치주소파
-2.237632	십오 번 칠
-1.937643	십오 번 침윤
-2.237632	십오 번 파노라마
-2.237632	십오 번 파철편
-2.237632	십오 번 팔
-2.062582	십오 번 포스트
-1.937643	십오 번 혈당
-1.995635	십오 번 홈
-1.937643	십오 번 후
-0.6803545	십육 번 </s>
-2.358569	십육 번 <UNK>
-1.990592	십육 번 APF
-2.057539	십육 번 CR
-1.932601	십육 번 CT
-1.932601	십육 번 EPT
-2.358569	십육 번 GI
-2.23259	십육 번 REENDO
-2.23259	십육 번 SBS
-2.23259	십육 번 가압
-1.932601	십육 번 교익
-2.057539	십육 번 교합
-2.23259	십육 번 구
-1.756509	십육 번 구강
-2.057539	십육 번 구내염
-1.344329	십육 번 근
-2.23259	십육 번 난
-1.835691	십육 번 단순
-2.23259	십육 번 당일
-2.23259	십육 번 덴티스타
-2.23259	십육 번 동시
-2.23259	십육 번 드레싱
-2.23259	십육 번 러버댐
-2.23259	십육 번 로도질
-2.23259	십육 번 발수
-2.23259	십육 번 발치
-2.23259	십육 번 보철
-1.932601	십육 번 보철물
-1.990592	십육 번 보철재
-2.358569	십육 번 보통
-1.990592	십육 번 복잡
-2.23259	십육 번 봉합사
-2.358569	십육 번 부분
-1.990592	십육 번 비
-2.23259	십육 번 사
-2.23259	십육 번 사십
-2.23259	십육 번 삼
-2.358569	십육 번 삼십
-2.23259	십육 번 삼십구
-2.23259	십육 번 삼십사
-2.23259	십육 번 삼십삼
-2.358569	십육 번 삼십오
-2.358569	십육 번 삼십육
-2.23259	십육 번 삼십이
-2.23259	십육 번 삼십일
-2.23259	십육 번 삼십칠
-2.358569	십육 번 삼십팔
-2.534661	십육 번 세균막
-1.932601	십육 번 소아
-1.932601	십육 번 소염술
-2.23259	십육 번 십
-2.358569	십육 번 십구
-2.23259	십육 번 십사
-2.23259	십육 번 십삼
-2.23259	십육 번 십오
-2.23259	십육 번 십이
-2.23259	십육 번 십일
-2.23259	십육 번 십칠
-2.358569	십육 번 십팔
-2.358569	십육 번 아목시실린
-1.990592	십육 번 약관절
-2.23259	십육 번 영구
-2.23259	십육 번 영구접착
-2.23259	십육 번 오
-2.23259	십육 번 오구멘틴
-1.990592	십육 번 완전
-2.136721	십육 번 원외
-2.358569	십육 번 육
-2.358569	십육 번 응급
-2.358569	십육 번 이
-2.358569	십육 번 이십
-2.358569	십육 번 이십구
-2.23259	십육 번 이십사
-2.23259	십육 번 이십삼
-2.23259	십육 번 이십오
-2.23259	십육 번 이십육
-2.23259	십육 번 이십이
-2.23259	십육 번 이십일
-2.358569	십육 번 이십칠
-2.358569	십육 번 이십팔
-2.23259	십육 번 인레이
-2.23259	십육 번 일
-1.990592	십육 번 임시
-2.358569	십육 번 임플
-2.057539	십육 번 전달
-1.932601	십육 번 지각
-2.23259	십육 번 진정
-2.23259	십육 번 충전
-1.990592	십육 번 충전재
-1.990592	십육 번 치관
-1.990592	십육 번 치근
-2.136721	십육 번 치면
-2.358569	십육 번 치석
-1.990592	십육 번 치수
-1.689563	십육 번 치은
-1.932601	십육 번 치은판
-1.932601	십육 번 치조골
-2.23259	십육 번 치주소파
-2.23259	십육 번 칠
-2.23259	십육 번 침윤
-2.358569	십육 번 파노라마
-2.23259	십육 번 파철편
-2.23259	십육 번 팔
-2.057539	십육 번 포스트
-2.057539	십육 번 혈당
-1.990592	십육 번 홈
-1.990592	십육 번 후
-0.6939053	십이 번 </s>
-2.230683	십이 번 <UNK>
-1.988686	십이 번 APF
-1.988686	십이 번 CR
-1.988686	십이 번 CT
-2.134814	십이 번 EPT
-2.230683	십이 번 GI
-2.230683	십이 번 REENDO
-2.230683	십이 번 SBS
-2.230683	십이 번 가압
-1.930694	십이 번 교익
-1.930694	십이 번 교합
-2.356663	십이 번 구
-1.719841	십이 번 구강
-1.988686	십이 번 구내염
-1.356663	십이 번 근
-2.356663	십이 번 난
-1.879542	십이 번 단순
-2.356663	십이 번 당일
-2.356663	십이 번 덴티스타
-2.230683	십이 번 동시
-2.230683	십이 번 드레싱
-2.230683	십이 번 러버댐
-2.230683	십이 번 로도질
-2.356663	십이 번 발수
-2.356663	십이 번 발치
-2.230683	십이 번 보철
-1.930694	십이 번 보철물
-1.930694	십이 번 보철재
-2.230683	십이 번 보통
-1.988686	십이 번 복잡
-2.532754	십이 번 봉합사
-2.230683	십이 번 부분
-1.988686	십이 번 비
-2.230683	십이 번 사
-2.532754	십이 번 사십
-2.230683	십이 번 삼
-2.356663	십이 번 삼십
-2.230683	십이 번 삼십구
-2.230683	십이 번 삼십사
-2.230683	십이 번 삼십삼
-2.356663	십이 번 삼십오
-2.230683	십이 번 삼십육
-2.230683	십이 번 삼십이
-2.230683	십이 번 삼십일
-2.532754	십이 번 삼십칠
-2.230683	십이 번 삼십팔
-2.230683	십이 번 세균막
-1.930694	십이 번 소아
-1.930694	십이 번 소염술
-2.356663	십이 번 십
-2.230683	십이 번 십구
-2.230683	십이 번 십사
-2.230683	십이 번 십삼
-2.356663	십이 번 십오
-2.230683	십이 번 십육
-2.230683	십이 번 십일
-2.230683	십이 번 십칠
-2.356663	십이 번 십팔
-2.356663	십이 번 아목시실린
-1.930694	십이 번 약관절
-2.356663	십이 번 영구
-2.230683	십이 번 영구접착
-2.230683	십이 번 오
-2.356663	십이 번 오구멘틴
-2.055633	십이 번 완전
-1.988686	십이 번 원외
-2.356663	십이 번 육
-2.356663	십이 번 응급
-2.230683	십이 번 이
-2.356663	십이 번 이십
-2.230683	십이 번 이십구
-2.230683	십이 번 이십사
-2.230683	십이 번 이십삼
-2.230683	십이 번 이십오
-2.230683	십이 번 이십육
-2.230683	십이 번 이십이
-2.230683	십이 번 이십일
-2.230683	십이 번 이십칠
-2.356663	십이 번 이십팔
-2.230683	십이 번 인레이
-2.230683	십이 번 일
-2.055633	십이 번 임시
-1.988686	십이 번 전달
-1.930694	십이 번 지각
-2.356663	십이 번 진정
-2.230683	십이 번 충전
-1.988686	십이 번 충전재
-1.930694	십이 번 치관
-1.988686	십이 번 치근
-1.988686	십이 번 치면
-2.356663	십이 번 치석
-1.988686	십이 번 치수
-1.719841	십이 번 치은
-1.930694	십이 번 치은판
-2.055633	십이 번 치조골
-2.230683	십이 번 치주소파
-2.356663	십이 번 칠
-1.930694	십이 번 침윤
-2.230683	십이 번 파노라마
-2.230683	십이 번 파철편
-2.230683	십이 번 팔
-1.930694	십이 번 포스트
-1.930694	십이 번 혈당
-2.055633	십이 번 홈
-1.930694	십이 번 후
-0.69897	십일 번 </s>
-2.23259	십일 번 <UNK>
-1.932601	십일 번 APF
-1.932601	십일 번 CR
-2.057539	십일 번 CT
-1.990592	십일 번 EPT
-2.23259	십일 번 GI
-2.23259	십일 번 REENDO
-2.23259	십일 번 SBS
-2.23259	십일 번 가압
-1.990592	십일 번 교익
-2.057539	십일 번 교합
-2.23259	십일 번 구
-1.721747	십일 번 구강
-1.990592	십일 번 구내염
-1.373293	십일 번 근
-2.534661	십일 번 난
-1.794298	십일 번 단순
-2.534661	십일 번 당일
-2.23259	십일 번 덴티스타
-2.23259	십일 번 동시
-2.23259	십일 번 드레싱
-2.23259	십일 번 러버댐
-2.358569	십일 번 로도질
-2.358569	십일 번 발수
-2.23259	십일 번 발치
-2.23259	십일 번 보철
-1.990592	십일 번 보철물
-1.932601	십일 번 보철재
-2.358569	십일 번 보통
-1.990592	십일 번 복잡
-2.23259	십일 번 봉합사
-2.358569	십일 번 부분
-1.990592	십일 번 비
-2.358569	십일 번 사
-2.23259	십일 번 사십
-2.358569	십일 번 삼
-2.358569	십일 번 삼십
-2.358569	십일 번 삼십구
-2.23259	십일 번 삼십사
-2.358569	십일 번 삼십삼
-2.23259	십일 번 삼십오
-2.23259	십일 번 삼십육
-2.23259	십일 번 삼십이
-2.23259	십일 번 삼십일
-2.534661	십일 번 삼십칠
-2.23259	십일 번 삼십팔
-2.358569	십일 번 세균막
-1.990592	십일 번 소아
-1.932601	십일 번 소염술
-2.358569	십일 번 십
-2.534661	십일 번 십구
-2.23259	십일 번 십사
-2.358569	십일 번 십삼
-2.358569	십일 번 십오
-2.23259	십일 번 십육
-2.358569	십일 번 십이
-2.358569	십일 번 십칠
-2.534661	십일 번 십팔
-2.358569	십일 번 아목시실린
-1.932601	십일 번 약관절
-2.23259	십일 번 영구
-2.23259	십일 번 영구접착
-2.23259	십일 번 오
-2.23259	십일 번 오구멘틴
-2.057539	십일 번 완전
-1.932601	십일 번 원외
-2.23259	십일 번 육
-2.358569	십일 번 응급
-2.358569	십일 번 이
-2.23259	십일 번 이십
-2.23259	십일 번 이십구
-2.23259	십일 번 이십사
-2.23259	십일 번 이십삼
-2.23259	십일 번 이십오
-2.23259	십일 번 이십육
-2.23259	십일 번 이십이
-2.23259	십일 번 이십일
-2.23259	십일 번 이십칠
-2.23259	십일 번 이십팔
-2.23259	십일 번 인레이
-2.23259	십일 번 일
-1.990592	십일 번 임시
-2.23259	십일 번 임플
-1.990592	십일 번 전달
-1.990592	십일 번 지각
-2.358569	십일 번 진정
-2.23259	십일 번 충전
-1.990592	십일 번 충전재
-1.990592	십일 번 치관
-1.932601	십일 번 치근
-1.990592	십일 번 치면
-2.358569	십일 번 치석
-1.932601	십일 번 치수
-1.631571	십일 번 치은
-1.932601	십일 번 치은판
-1.932601	십일 번 치조골
-2.23259	십일 번 치주소파
-2.23259	십일 번 칠
-2.057539	십일 번 침윤
-2.23259	십일 번 파노라마
-2.23259	십일 번 파철편
-2.358569	십일 번 팔
-1.932601	십일 번 포스트
-1.990592	십일 번 혈당
-1.990592	십일 번 홈
-1.932601	십일 번 후
-0.6814874	십칠 번 </s>
-2.371683	십칠 번 <UNK>
-1.945715	십칠 번 APF
-1.945715	십칠 번 CR
-1.945715	십칠 번 CT
-1.945715	십칠 번 EPT
-2.245704	십칠 번 GI
-2.245704	십칠 번 REENDO
-2.245704	십칠 번 SBS
-2.371683	십칠 번 가압
-2.003707	십칠 번 교익
-1.945715	십칠 번 교합
-2.245704	십칠 번 구
-1.672713	십칠 번 구강
-2.070653	십칠 번 구내염
-1.357443	십칠 번 근
-2.245704	십칠 번 난
-1.769623	십칠 번 단순
-2.245704	십칠 번 당일
-2.245704	십칠 번 덴티스타
-2.245704	십칠 번 동시
-2.245704	십칠 번 드레싱
-2.245704	십칠 번 러버댐
-2.245704	십칠 번 로도질
-2.245704	십칠 번 발수
-2.245704	십칠 번 발치
-2.245704	십칠 번 보철
-2.003707	십칠 번 보철물
-2.003707	십칠 번 보철재
-2.245704	십칠 번 보통
-2.003707	십칠 번 복잡
-2.371683	십칠 번 봉합사
-2.547775	십칠 번 부분
-1.945715	십칠 번 비
-2.371683	십칠 번 사
-2.245704	십칠 번 사십
-2.371683	십칠 번 삼
-2.245704	십칠 번 삼십
-2.245704	십칠 번 삼십구
-2.245704	십칠 번 삼십사
-2.371683	십칠 번 삼십삼
-2.547775	십칠 번 삼십오
-2.245704	십칠 번 삼십육
-2.245704	십칠 번 삼십이
-2.245704	십칠 번 삼십일
-2.245704	십칠 번 삼십칠
-2.371683	십칠 번 삼십팔
-2.371683	십칠 번 세균막
-2.070653	십칠 번 소아
-2.149835	십칠 번 소염술
-2.245704	십칠 번 십
-2.245704	십칠 번 십구
-2.245704	십칠 번 십사
-2.245704	십칠 번 십삼
-2.245704	십칠 번 십오
-2.371683	십칠 번 십육
-2.371683	십칠 번 십이
-2.245704	십칠 번 십일
-2.245704	십칠 번 십팔
-2.371683	십칠 번 아목시실린
-1.945715	십칠 번 약관절
-2.245704	십칠 번 영구
-2.245704	십칠 번 영구접착
-2.245704	십칠 번 오
-2.245704	십칠 번 오구멘틴
-1.945715	십칠 번 완전
-1.945715	십칠 번 원외
-2.245704	십칠 번 육
-2.371683	십칠 번 응급
-2.245704	십칠 번 이
-2.245704	십칠 번 이십
-2.245704	십칠 번 이십구
-2.245704	십칠 번 이십사
-2.245704	십칠 번 이십삼
-2.245704	십칠 번 이십오
-2.245704	십칠 번 이십육
-2.371683	십칠 번 이십이
-2.245704	십칠 번 이십일
-2.245704	십칠 번 이십칠
-2.245704	십칠 번 이십팔
-2.245704	십칠 번 인레이
-2.371683	십칠 번 일
-2.003707	십칠 번 임시
-2.547775	십칠 번 임플
-2.003707	십칠 번 전달
-2.003707	십칠 번 지각
-2.371683	십칠 번 진정
-2.371683	십칠 번 충전
-2.003707	십칠 번 충전재
-2.003707	십칠 번 치관
-1.945715	십칠 번 치근
-1.945715	십칠 번 치면
-2.245704	십칠 번 치석
-2.003707	십칠 번 치수
-1.672713	십칠 번 치은
-2.070653	십칠 번 치은판
-2.003707	십칠 번 치조골
-2.245704	십칠 번 치주소파
-2.245704	십칠 번 칠
-2.003707	십칠 번 침윤
-2.245704	십칠 번 파노라마
-2.245704	십칠 번 파철편
-2.547775	십칠 번 팔
-2.003707	십칠 번 포스트
-2.003707	십칠 번 혈당
-1.945715	십칠 번 홈
-1.945715	십칠 번 후
-0.7028133	십팔 번 </s>
-2.230046	십팔 번 <UNK>
-1.930057	십팔 번 APF
-1.988049	십팔 번 CR
-1.930057	십팔 번 CT
-1.988049	십팔 번 EPT
-2.356026	십팔 번 GI
-2.230046	십팔 번 REENDO
-2.230046	십팔 번 SBS
-2.230046	십팔 번 가압
-1.988049	십팔 번 교익
-1.930057	십팔 번 교합
-2.230046	십팔 번 구
-1.687019	십팔 번 구강
-2.054996	십팔 번 구내염
-1.341785	십팔 번 근
-2.356026	십팔 번 난
-1.988049	십팔 번 단순
-2.230046	십팔 번 당일
-2.230046	십팔 번 덴티스타
-2.230046	십팔 번 동시
-2.230046	십팔 번 드레싱
-2.230046	십팔 번 러버댐
-2.356026	십팔 번 로도질
-2.230046	십팔 번 발수
-2.230046	십팔 번 발치
-2.356026	십팔 번 보철
-1.930057	십팔 번 보철물
-2.054996	십팔 번 보철재
-2.230046	십팔 번 보통
-1.930057	십팔 번 복잡
-2.230046	십팔 번 봉합사
-2.230046	십팔 번 부분
-1.930057	십팔 번 비
-2.356026	십팔 번 사
-2.230046	십팔 번 사십
-2.230046	십팔 번 삼
-2.356026	십팔 번 삼십구
-2.356026	십팔 번 삼십사
-2.230046	십팔 번 삼십삼
-2.230046	십팔 번 삼십오
-2.230046	십팔 번 삼십육
-2.230046	십팔 번 삼십이
-2.356026	십팔 번 삼십일
-2.532117	십팔 번 삼십칠
-2.356026	십팔 번 삼십팔
-2.230046	십팔 번 세균막
-2.054996	십팔 번 소아
-1.988049	십팔 번 소염술
-2.356026	십팔 번 십
-2.230046	십팔 번 십구
-2.230046	십팔 번 십사
-2.230046	십팔 번 십삼
-2.356026	십팔 번 십오
-2.230046	십팔 번 십육
-2.230046	십팔 번 십이
-2.356026	십팔 번 십일
-2.230046	십팔 번 십칠
-2.532117	십팔 번 아목시실린
-1.988049	십팔 번 약관절
-2.230046	십팔 번 영구
-2.356026	십팔 번 영구접착
-2.230046	십팔 번 오
-2.356026	십팔 번 오구멘틴
-1.988049	십팔 번 완전
-1.930057	십팔 번 원외
-2.230046	십팔 번 육
-2.532117	십팔 번 응급
-2.230046	십팔 번 이
-2.356026	십팔 번 이십
-2.230046	십팔 번 이십구
-2.356026	십팔 번 이십사
-2.356026	십팔 번 이십삼
-2.230046	십팔 번 이십오
-2.356026	십팔 번 이십육
-2.230046	십팔 번 이십이
-2.356026	십팔 번 이십일
-2.356026	십팔 번 이십칠
-2.230046	십팔 번 이십팔
-2.356026	십팔 번 인레이
-2.230046	십팔 번 일
-1.988049	십팔 번 임시
-2.230046	십팔 번 임플
-1.988049	십팔 번 전달
-1.930057	십팔 번 지각
-2.230046	십팔 번 진정
-2.230046	십팔 번 충전
-1.988049	십팔 번 충전재
-1.988049	십팔 번 치관
-1.930057	십팔 번 치근
-1.930057	십팔 번 치면
-2.230046	십팔 번 치석
-1.988049	십팔 번 치수
-1.687019	십팔 번 치은
-1.930057	십팔 번 치은판
-1.988049	십팔 번 치조골
-2.230046	십팔 번 치주소파
-2.230046	십팔 번 칠
-2.054996	십팔 번 침윤
-2.230046	십팔 번 파노라마
-2.230046	십팔 번 파철편
-2.230046	십팔 번 팔
-1.988049	십팔 번 포스트
-1.988049	십팔 번 혈당
-1.930057	십팔 번 홈
-1.930057	십팔 번 후
-0.6853972	오 번 </s>
-2.237632	오 번 <UNK>
-1.937643	오 번 APF
-1.995635	오 번 CR
-1.937643	오 번 CT
-1.937643	오 번 EPT
-2.363612	오 번 GI
-2.237632	오 번 REENDO
-2.237632	오 번 SBS
-2.237632	오 번 가압
-1.995635	오 번 교익
-2.062582	오 번 교합
-2.237632	오 번 구
-1.664642	오 번 구강
-1.937643	오 번 구내염
-1.363612	오 번 근
-2.237632	오 번 난
-1.799341	오 번 단순
-2.237632	오 번 당일
-2.539703	오 번 덴티스타
-2.237632	오 번 동시
-2.363612	오 번 드레싱
-2.237632	오 번 러버댐
-2.237632	오 번 로도질
-2.237632	오 번 발수
-2.237632	오 번 발치
-2.237632	오 번 보철
-1.937643	오 번 보철물
-1.995635	오 번 보철재
-2.363612	오 번 보통
-1.937643	오 번 복잡
-2.363612	오 번 봉합사
-2.363612	오 번 부분
-1.995635	오 번 비
-2.237632	오 번 사
-2.237632	오 번 사십
-2.237632	오 번 삼
-2.237632	오 번 삼십
-2.237632	오 번 삼십구
-2.237632	오 번 삼십사
-2.237632	오 번 삼십삼
-2.237632	오 번 삼십오
-2.363612	오 번 삼십육
-2.363612	오 번 삼십이
-2.237632	오 번 삼십일
-2.363612	오 번 삼십칠
-2.237632	오 번 삼십팔
-2.363612	오 번 세균막
-1.995635	오 번 소아
-1.937643	오 번 소염술
-2.237632	오 번 십
-2.237632	오 번 십구
-2.363612	오 번 십사
-2.363612	오 번 십삼
-2.237632	오 번 십오
-2.237632	오 번 십육
-2.237632	오 번 십이
-2.363612	오 번 십일
-2.237632	오 번 십칠
-2.363612	오 번 십팔
-2.363612	오 번 아목시실린
-2.062582	오 번 약관절
-2.237632	오 번 영구
-2.237632	오 번 영구접착
-2.237632	오 번 오구멘틴
-2.141763	오 번 완전
-2.062582	오 번 원외
-2.237632	오 번 육
-2.237632	오 번 응급
-2.363612	오 번 이
-2.237632	오 번 이십
-2.237632	오 번 이십구
-2.363612	오 번 이십사
-2.237632	오 번 이십삼
-2.237632	오 번 이십오
-2.363612	오 번 이십육
-2.363612	오 번 이십이
-2.237632	오 번 이십일
-2.363612	오 번 이십칠
-2.237632	오 번 이십팔
-2.363612	오 번 인레이
-2.237632	오 번 일
-1.937643	오 번 임시
-2.237632	오 번 임플
-2.062582	오 번 전달
-1.995635	오 번 지각
-2.237632	오 번 진정
-2.237632	오 번 충전
-2.062582	오 번 충전재
-2.062582	오 번 치관
-2.141763	오 번 치근
-1.995635	오 번 치면
-2.237632	오 번 치석
-1.937643	오 번 치수
-1.694605	오 번 치은
-1.937643	오 번 치은판
-1.937643	오 번 치조골
-2.237632	오 번 치주소파
-2.237632	오 번 칠
-1.937643	오 번 침윤
-2.237632	오 번 파노라마
-2.363612	오 번 파철편
-2.237632	오 번 팔
-1.937643	오 번 포스트
-1.995635	오 번 혈당
-1.995635	오 번 홈
-2.141763	오 번 후
-0.6872732	육 번 </s>
-2.239508	육 번 <UNK>
-2.064458	육 번 APF
-1.997511	육 번 CR
-1.939519	육 번 CT
-1.939519	육 번 EPT
-2.239508	육 번 GI
-2.239508	육 번 REENDO
-2.239508	육 번 SBS
-2.239508	육 번 가압
-1.997511	육 번 교익
-1.997511	육 번 교합
-2.239508	육 번 구
-1.696481	육 번 구강
-1.939519	육 번 구내염
-1.395451	육 번 근
-2.239508	육 번 난
-1.801217	육 번 단순
-2.239508	육 번 당일
-2.239508	육 번 덴티스타
-2.239508	육 번 동시
-2.365488	육 번 드레싱
-2.365488	육 번 러버댐
-2.239508	육 번 로도질
-2.239508	육 번 발수
-2.365488	육 번 발치
-2.239508	육 번 보철
-1.939519	육 번 보철물
-1.997511	육 번 보철재
-2.239508	육 번 보통
-1.939519	육 번 복잡
-2.365488	육 번 봉합사
-2.365488	육 번 부분
-1.997511	육 번 비
-2.239508	육 번 사
-2.239508	육 번 사십
-2.365488	육 번 삼
-2.239508	육 번 삼십
-2.239508	육 번 삼십구
-2.239508	육 번 삼십사
-2.239508	육 번 삼십삼
-2.365488	육 번 삼십오
-2.365488	육 번 삼십육
-2.365488	육 번 삼십이
-2.541579	육 번 삼십일
-2.365488	육 번 삼십칠
-2.365488	육 번 삼십팔
-2.239508	육 번 세균막
-1.939519	육 번 소아
-1.997511	육 번 소염술
-2.239508	육 번 십
-2.239508	육 번 십구
-2.239508	육 번 십사
-2.239508	육 번 십삼
-2.239508	육 번 십오
-2.239508	육 번 십육
-2.239508	육 번 십이
-2.239508	육 번 십일
-2.239508	육 번 십칠
-2.365488	육 번 십팔
-2.239508	육 번 아목시실린
-1.939519	육 번 약관절
-2.239508	육 번 영구
-2.239508	육 번 영구접착
-2.365488	육 번 오
-2.239508	육 번 오구멘틴
-1.939519	육 번 완전
-1.939519	육 번 원외
-2.239508	육 번 응급
-2.365488	육 번 이
-2.239508	육 번 이십구
-2.365488	육 번 이십사
-2.239508	육 번 이십삼
-2.365488	육 번 이십오
-2.239508	육 번 이십육
-2.239508	육 번 이십이
-2.239508	육 번 이십일
-2.365488	육 번 이십칠
-2.239508	육 번 이십팔
-2.365488	육 번 인레이
-2.239508	육 번 일
-1.939519	육 번 임시
-2.239508	육 번 임플
-1.939519	육 번 전달
-1.939519	육 번 지각
-2.365488	육 번 진정
-2.365488	육 번 충전
-2.064458	육 번 충전재
-1.997511	육 번 치관
-1.997511	육 번 치근
-1.997511	육 번 치면
-2.365488	육 번 치석
-2.064458	육 번 치수
-1.666518	육 번 치은
-2.064458	육 번 치은판
-2.064458	육 번 치조골
-2.365488	육 번 치주소파
-2.239508	육 번 칠
-1.939519	육 번 침윤
-2.239508	육 번 파노라마
-2.239508	육 번 파철편
-2.239508	육 번 팔
-1.997511	육 번 포스트
-1.939519	육 번 혈당
-1.939519	육 번 홈
-1.939519	육 번 후
-0.6945416	이 번 </s>
-2.23132	이 번 <UNK>
-1.931331	이 번 APF
-2.135451	이 번 CR
-1.989323	이 번 CT
-1.989323	이 번 EPT
-2.23132	이 번 GI
-2.23132	이 번 REENDO
-2.23132	이 번 SBS
-2.23132	이 번 가압
-1.989323	이 번 교익
-1.931331	이 번 교합
-2.3573	이 번 구
-1.630301	이 번 구강
-1.989323	이 번 구내염
-1.372023	이 번 근
-2.23132	이 번 난
-1.880178	이 번 단순
-2.23132	이 번 당일
-2.23132	이 번 덴티스타
-2.3573	이 번 동시
-2.3573	이 번 드레싱
-2.23132	이 번 러버댐
-2.23132	이 번 로도질
-2.23132	이 번 발수
-2.3573	이 번 발치
-2.533391	이 번 보철
-2.056269	이 번 보철물
-2.056269	이 번 보철재
-2.3573	이 번 보통
-2.135451	이 번 복잡
-2.3573	이 번 봉합사
-2.23132	이 번 부분
-1.931331	이 번 비
-2.23132	이 번 사
-2.23132	이 번 사십
-2.3573	이 번 삼
-2.23132	이 번 삼십
-2.3573	이 번 삼십구
-2.23132	이 번 삼십사
-2.23132	이 번 삼십삼
-2.23132	이 번 삼십오
-2.23132	이 번 삼십육
-2.3573	이 번 삼십이
-2.23132	이 번 삼십일
-2.23132	이 번 삼십칠
-2.23132	이 번 삼십팔
-2.23132	이 번 세균막
-1.931331	이 번 소아
-1.931331	이 번 소염술
-2.23132	이 번 십
-2.3573	이 번 십구
-2.23132	이 번 십사
-2.23132	이 번 십삼
-2.23132	이 번 십오
-2.3573	이 번 십육
-2.3573	이 번 십이
-2.23132	이 번 십일
-2.23132	이 번 십칠
-2.23132	이 번 십팔
-2.23132	이 번 아목시실린
-2.135451	이 번 약관절
-2.3573	이 번 영구
-2.23132	이 번 영구접착
-2.23132	이 번 오
-2.23132	이 번 오구멘틴
-1.931331	이 번 완전
-1.989323	이 번 원외
-2.533391	이 번 육
-2.3573	이 번 응급
-2.23132	이 번 이십
-2.23132	이 번 이십구
-2.3573	이 번 이십사
-2.3573	이 번 이십삼
-2.23132	이 번 이십오
-2.23132	이 번 이십육
-2.3573	이 번 이십이
-2.3573	이 번 이십일
-2.23132	이 번 이십칠
-2.533391	이 번 이십팔
-2.23132	이 번 인레이
-2.23132	이 번 일
-1.931331	이 번 임시
-2.23132	이 번 임플
-1.931331	이 번 전달
-1.989323	이 번 지각
-2.3573	이 번 진정
-2.3573	이 번 충전
-1.931331	이 번 충전재
-1.989323	이 번 치관
-1.989323	이 번 치근
-2.056269	이 번 치면
-2.3573	이 번 치석
-1.931331	이 번 치수
-1.658329	이 번 치은
-1.931331	이 번 치은판
-1.931331	이 번 치조골
-2.23132	이 번 치주소파
-2.23132	이 번 칠
-1.931331	이 번 침윤
-2.3573	이 번 파노라마
-2.23132	이 번 파철편
-2.3573	이 번 팔
-2.056269	이 번 포스트
-1.989323	이 번 혈당
-1.931331	이 번 홈
-2.056269	이 번 후
-0.702199	이십 번 </s>
-2.226203	이십 번 <UNK>
-1.926214	이십 번 APF
-1.984206	이십 번 CR
-2.352183	이십 번 CT
-1.926214	이십 번 EPT
-2.226203	이십 번 GI
-2.226203	이십 번 REENDO
-2.226203	이십 번 SBS
-2.226203	이십 번 가압
-1.926214	이십 번 교익
-2.130334	이십 번 교합
-2.352183	이십 번 구
-1.653213	이십 번 구강
-1.984206	이십 번 구내염
-1.382146	이십 번 근
-2.226203	이십 번 난
-1.829304	이십 번 단순
-2.226203	이십 번 당일
-2.226203	이십 번 덴티스타
-2.352183	이십 번 동시
-2.226203	이십 번 드레싱
-2.352183	이십 번 러버댐
-2.352183	이십 번 로도질
-2.226203	이십 번 발수
-2.226203	이십 번 발치
-2.226203	이십 번 보철
-2.130334	이십 번 보철물
-1.926214	이십 번 보철재
-2.226203	이십 번 보통
-1.926214	이십 번 복잡
-2.528274	이십 번 봉합사
-2.352183	이십 번 부분
-1.926214	이십 번 비
-2.226203	이십 번 사
-2.226203	이십 번 사십
-2.352183	이십 번 삼
-2.352183	이십 번 삼십
-2.352183	이십 번 삼십구
-2.226203	이십 번 삼십사
-2.352183	이십 번 삼십삼
-2.352183	이십 번 삼십오
-2.226203	이십 번 삼십육
-2.226203	이십 번 삼십이
-2.226203	이십 번 삼십일
-2.352183	이십 번 삼십칠
-2.226203	이십 번 삼십팔
-2.352183	이십 번 세균막
-1.984206	이십 번 소아
-1.984206	이십 번 소염술
-2.226203	이십 번 십
-2.226203	이십 번 십구
-2.352183	이십 번 십사
-2.352183	이십 번 십삼
-2.226203	이십 번 십오
-2.226203	이십 번 십육
-2.226203	이십 번 십이
-2.352183	이십 번 십칠
-2.226203	이십 번 십팔
-2.352183	이십 번 아목시실린
-1.984206	이십 번 약관절
-2.226203	이십 번 영구
-2.226203	이십 번 영구접착
-2.352183	이십 번 오
-2.226203	이십 번 오구멘틴
-1.984206	이십 번 완전
-2.051152	이십 번 원외
-2.226203	이십 번 육
-2.352183	이십 번 응급
-2.226203	이십 번 이
-2.352183	이십 번 이십구
-2.226203	이십 번 이십사
-2.226203	이십 번 이십삼
-2.226203	이십 번 이십오
-2.352183	이십 번 이십육
-2.226203	이십 번 이십이
-2.352183	이십 번 이십일
-2.226203	이십 번 이십칠
-2.226203	이십 번 이십팔
-2.352183	이십 번 인레이
-2.352183	이십 번 일
-1.926214	이십 번 임시
-2.226203	이십 번 임플
-1.926214	이십 번 전달
-1.984206	이십 번 지각
-2.226203	이십 번 진정
-2.352183	이십 번 충전
-1.926214	이십 번 충전재
-1.926214	이십 번 치관
-1.926214	이십 번 치근
-1.926214	이십 번 치면
-2.226203	이십 번 치석
-1.984206	이십 번 치수
-1.683176	이십 번 치은
-2.051152	이십 번 치은판
-1.984206	이십 번 치조골
-2.226203	이십 번 치주소파
-2.226203	이십 번 칠
-1.984206	이십 번 침윤
-2.352183	이십 번 파노라마
-2.226203	이십 번 파철편
-2.352183	이십 번 팔
-1.984206	이십 번 포스트
-1.984206	이십 번 혈당
-1.926214	이십 번 홈
-1.926214	이십 번 후
-0.689762	이십구 번 </s>
-2.367977	이십구 번 <UNK>
-1.942008	이십구 번 APF
-2	이십구 번 CR
-1.942008	이십구 번 CT
-2	이십구 번 EPT
-2.241997	이십구 번 GI
-2.241997	이십구 번 REENDO
-2.367977	이십구 번 SBS
-2.241997	이십구 번 가압
-1.942008	이십구 번 교익
-1.942008	이십구 번 교합
-2.241997	이십구 번 구
-1.69897	이십구 번 구강
-1.942008	이십구 번 구내염
-1.367977	이십구 번 근
-2.367977	이십구 번 난
-1.765917	이십구 번 단순
-2.367977	이십구 번 당일
-2.241997	이십구 번 덴티스타
-2.241997	이십구 번 동시
-2.367977	이십구 번 드레싱
-2.367977	이십구 번 러버댐
-2.241997	이십구 번 로도질
-2.241997	이십구 번 발수
-2.241997	이십구 번 발치
-2.367977	이십구 번 보철
-2	이십구 번 보철물
-2.066947	이십구 번 보철재
-2.241997	이십구 번 보통
-2.066947	이십구 번 복잡
-2.241997	이십구 번 봉합사
-2.544068	이십구 번 부분
-1.942008	이십구 번 비
-2.367977	이십구 번 사
-2.367977	이십구 번 사십
-2.241997	이십구 번 삼
-2.241997	이십구 번 삼십
-2.241997	이십구 번 삼십구
-2.367977	이십구 번 삼십사
-2.241997	이십구 번 삼십삼
-2.241997	이십구 번 삼십오
-2.241997	이십구 번 삼십육
-2.241997	이십구 번 삼십이
-2.367977	이십구 번 삼십일
-2.367977	이십구 번 삼십칠
-2.241997	이십구 번 삼십팔
-2.544068	이십구 번 세균막
-1.942008	이십구 번 소아
-1.942008	이십구 번 소염술
-2.241997	이십구 번 십
-2.241997	이십구 번 십구
-2.241997	이십구 번 십사
-2.241997	이십구 번 십삼
-2.367977	이십구 번 십오
-2.241997	이십구 번 십육
-2.367977	이십구 번 십이
-2.367977	이십구 번 십일
-2.367977	이십구 번 십칠
-2.241997	이십구 번 십팔
-2.241997	이십구 번 아목시실린
-2	이십구 번 약관절
-2.241997	이십구 번 영구
-2.367977	이십구 번 영구접착
-2.241997	이십구 번 오
-2.367977	이십구 번 오구멘틴
-1.942008	이십구 번 완전
-1.942008	이십구 번 원외
-2.241997	이십구 번 육
-2.241997	이십구 번 응급
-2.544068	이십구 번 이
-2.241997	이십구 번 이십
-2.241997	이십구 번 이십사
-2.241997	이십구 번 이십삼
-2.367977	이십구 번 이십오
-2.241997	이십구 번 이십육
-2.367977	이십구 번 이십이
-2.367977	이십구 번 이십일
-2.241997	이십구 번 이십칠
-2.367977	이십구 번 이십팔
-2.241997	이십구 번 인레이
-2.241997	이십구 번 일
-2	이십구 번 임시
-2.241997	이십구 번 임플
-2	이십구 번 전달
-2.066947	이십구 번 지각
-2.241997	이십구 번 진정
-2.241997	이십구 번 충전
-2	이십구 번 충전재
-2	이십구 번 치관
-2	이십구 번 치근
-2	이십구 번 치면
-2.241997	이십구 번 치석
-1.942008	이십구 번 치수
-1.69897	이십구 번 치은
-2.066947	이십구 번 치은판
-1.942008	이십구 번 치조골
-2.241997	이십구 번 치주소파
-2.241997	이십구 번 칠
-1.942008	이십구 번 침윤
-2.241997	이십구 번 파노라마
-2.241997	이십구 번 파철편
-2.241997	이십구 번 팔
-1.942008	이십구 번 포스트
-1.942008	이십구 번 혈당
-1.942008	이십구 번 홈
-1.942008	이십구 번 후
-0.701536	이십사 번 </s>
-2.354748	이십사 번 <UNK>
-1.986772	이십사 번 APF
-1.92878	이십사 번 CR
-1.92878	이십사 번 CT
-1.92878	이십사 번 EPT
-2.354748	이십사 번 GI
-2.228769	이십사 번 REENDO
-2.354748	이십사 번 SBS
-2.354748	이십사 번 가압
-1.92878	이십사 번 교익
-1.92878	이십사 번 교합
-2.228769	이십사 번 구
-1.655779	이십사 번 구강
-1.92878	이십사 번 구내염
-1.43393	이십사 번 근
-2.228769	이십사 번 난
-1.790477	이십사 번 단순
-2.354748	이십사 번 당일
-2.228769	이십사 번 덴티스타
-2.228769	이십사 번 동시
-2.228769	이십사 번 드레싱
-2.228769	이십사 번 러버댐
-2.354748	이십사 번 로도질
-2.228769	이십사 번 발수
-2.228769	이십사 번 발치
-2.228769	이십사 번 보철
-2.1329	이십사 번 보철물
-2.053719	이십사 번 보철재
-2.228769	이십사 번 보통
-1.986772	이십사 번 복잡
-2.228769	이십사 번 봉합사
-2.228769	이십사 번 부분
-1.986772	이십사 번 비
-2.228769	이십사 번 사
-2.228769	이십사 번 사십
-2.53084	이십사 번 삼
-2.228769	이십사 번 삼십
-2.354748	이십사 번 삼십구
-2.228769	이십사 번 삼십사
-2.228769	이십사 번 삼십삼
-2.228769	이십사 번 삼십오
-2.354748	이십사 번 삼십육
-2.228769	이십사 번 삼십이
-2.354748	이십사 번 삼십일
-2.354748	이십사 번 삼십칠
-2.228769	이십사 번 삼십팔
-2.354748	이십사 번 세균막
-1.92878	이십사 번 소아
-1.986772	이십사 번 소염술
-2.53084	이십사 번 십
-2.228769	이십사 번 십구
-2.228769	이십사 번 십사
-2.228769	이십사 번 십삼
-2.228769	이십사 번 십오
-2.228769	이십사 번 십육
-2.228769	이십사 번 십이
-2.228769	이십사 번 십일
-2.228769	이십사 번 십칠
-2.228769	이십사 번 십팔
-2.354748	이십사 번 아목시실린
-1.986772	이십사 번 약관절
-2.228769	이십사 번 영구
-2.354748	이십사 번 영구접착
-2.228769	이십사 번 오
-2.228769	이십사 번 오구멘틴
-1.92878	이십사 번 완전
-1.986772	이십사 번 원외
-2.228769	이십사 번 육
-2.228769	이십사 번 응급
-2.354748	이십사 번 이
-2.228769	이십사 번 이십
-2.354748	이십사 번 이십구
-2.354748	이십사 번 이십삼
-2.354748	이십사 번 이십오
-2.228769	이십사 번 이십육
-2.354748	이십사 번 이십이
-2.228769	이십사 번 이십일
-2.228769	이십사 번 이십칠
-2.228769	이십사 번 이십팔
-2.228769	이십사 번 인레이
-2.228769	이십사 번 일
-1.92878	이십사 번 임시
-2.228769	이십사 번 임플
-1.986772	이십사 번 전달
-2.053719	이십사 번 지각
-2.354748	이십사 번 진정
-2.228769	이십사 번 충전
-1.92878	이십사 번 충전재
-2.053719	이십사 번 치관
-2.228769	이십사 번 치근
-1.986772	이십사 번 치면
-2.228769	이십사 번 치석
-2.053719	이십사 번 치수
-1.685742	이십사 번 치은
-2.053719	이십사 번 치은판
-1.92878	이십사 번 치조골
-2.228769	이십사 번 치주소파
-2.228769	이십사 번 칠
-1.92878	이십사 번 침윤
-2.228769	이십사 번 파노라마
-2.354748	이십사 번 파철편
-2.354748	이십사 번 팔
-1.986772	이십사 번 포스트
-1.986772	이십사 번 혈당
-1.92878	이십사 번 홈
-2.053719	이십사 번 후
-0.6749561	이십삼 번 </s>
-2.233223	이십삼 번 <UNK>
-1.991226	이십삼 번 APF
-1.991226	이십삼 번 CR
-1.991226	이십삼 번 CT
-2.058173	이십삼 번 EPT
-2.233223	이십삼 번 GI
-2.359203	이십삼 번 REENDO
-2.359203	이십삼 번 SBS
-2.535294	이십삼 번 가압
-1.933234	이십삼 번 교익
-1.933234	이십삼 번 교합
-2.359203	이십삼 번 구
-1.660233	이십삼 번 구강
-1.991226	이십삼 번 구내염
-1.359203	이십삼 번 근
-2.233223	이십삼 번 난
-1.794931	이십삼 번 단순
-2.359203	이십삼 번 당일
-2.359203	이십삼 번 덴티스타
-2.233223	이십삼 번 동시
-2.233223	이십삼 번 드레싱
-2.233223	이십삼 번 러버댐
-2.233223	이십삼 번 로도질
-2.233223	이십삼 번 발수
-2.233223	이십삼 번 발치
-2.359203	이십삼 번 보철
-1.933234	이십삼 번 보철물
-2.058173	이십삼 번 보철재
-2.233223	이십삼 번 보통
-1.991226	이십삼 번 복잡
-2.233223	이십삼 번 봉합사
-2.359203	이십삼 번 부분
-1.933234	이십삼 번 비
-2.359203	이십삼 번 사
-2.233223	이십삼 번 사십
-2.233223	이십삼 번 삼
-2.359203	이십삼 번 삼십
-2.233223	이십삼 번 삼십구
-2.535294	이십삼 번 삼십사
-2.359203	이십삼 번 삼십삼
-2.359203	이십삼 번 삼십오
-2.233223	이십삼 번 삼십육
-2.233223	이십삼 번 삼십이
-2.233223	이십삼 번 삼십일
-2.359203	이십삼 번 삼십칠
-2.233223	이십삼 번 삼십팔
-2.359203	이십삼 번 세균막
-1.933234	이십삼 번 소아
-2.058173	이십삼 번 소염술
-2.233223	이십삼 번 십
-2.359203	이십삼 번 십구
-2.359203	이십삼 번 십사
-2.359203	이십삼 번 십삼
-2.359203	이십삼 번 십오
-2.233223	이십삼 번 십육
-2.233223	이십삼 번 십이
-2.233223	이십삼 번 십일
-2.359203	이십삼 번 십칠
-2.359203	이십삼 번 십팔
-2.233223	이십삼 번 아목시실린
-1.991226	이십삼 번 약관절
-2.359203	이십삼 번 영구
-2.233223	이십삼 번 영구접착
-2.535294	이십삼 번 오
-2.233223	이십삼 번 오구멘틴
-1.933234	이십삼 번 완전
-1.991226	이십삼 번 원외
-2.359203	이십삼 번 육
-2.233223	이십삼 번 응급
-2.233223	이십삼 번 이
-2.535294	이십삼 번 이십
-2.233223	이십삼 번 이십구
-2.535294	이십삼 번 이십사
-2.233223	이십삼 번 이십오
-2.233223	이십삼 번 이십육
-2.233223	이십삼 번 이십이
-2.233223	이십삼 번 이십일
-2.233223	이십삼 번 이십칠
-2.359203	이십삼 번 이십팔
-2.359203	이십삼 번 인레이
-2.359203	이십삼 번 일
-2.058173	이십삼 번 임시
-2.359203	이십삼 번 임플
-1.991226	이십삼 번 전달
-1.933234	이십삼 번 지각
-2.233223	이십삼 번 진정
-2.233223	이십삼 번 충전
-1.991226	이십삼 번 충전재
-2.058173	이십삼 번 치관
-1.933234	이십삼 번 치근
-2.058173	이십삼 번 치면
-2.233223	이십삼 번 치석
-2.058173	이십삼 번 치수
-1.690196	이십삼 번 치은
-1.933234	이십삼 번 치은판
-1.991226	이십삼 번 치조골
-2.233223	이십삼 번 치주소파
-2.233223	이십삼 번 칠
-1.933234	이십삼 번 침윤
-2.359203	이십삼 번 파노라마
-2.233223	이십삼 번 파철편
-2.233223	이십삼 번 팔
-1.933234	이십삼 번 포스트
-1.991226	이십삼 번 혈당
-1.991226	이십삼 번 홈
-1.933234	이십삼 번 후
-0.6874367	이십오 번 </s>
-2.245704	이십오 번 <UNK>
-1.945715	이십오 번 APF
-1.945715	이십오 번 CR
-1.945715	이십오 번 CT
-1.945715	이십오 번 EPT
-2.371683	이십오 번 GI
-2.245704	이십오 번 REENDO
-2.245704	이십오 번 SBS
-2.245704	이십오 번 가압
-1.945715	이십오 번 교익
-1.945715	이십오 번 교합
-2.371683	이십오 번 구
-1.644685	이십오 번 구강
-2.003707	이십오 번 구내염
-1.401647	이십오 번 근
-2.245704	이십오 번 난
-1.807412	이십오 번 단순
-2.245704	이십오 번 당일
-2.371683	이십오 번 덴티스타
-2.245704	이십오 번 동시
-2.245704	이십오 번 드레싱
-2.547775	이십오 번 러버댐
-2.245704	이십오 번 로도질
-2.245704	이십오 번 발수
-2.245704	이십오 번 발치
-2.245704	이십오 번 보철
-2.003707	이십오 번 보철물
-1.945715	이십오 번 보철재
-2.245704	이십오 번 보통
-1.945715	이십오 번 복잡
-2.245704	이십오 번 봉합사
-2.245704	이십오 번 부분
-1.945715	이십오 번 비
-2.245704	이십오 번 사
-2.371683	이십오 번 사십
-2.245704	이십오 번 삼
-2.371683	이십오 번 삼십
-2.245704	이십오 번 삼십구
-2.245704	이십오 번 삼십사
-2.245704	이십오 번 삼십삼
-2.245704	이십오 번 삼십오
-2.371683	이십오 번 삼십육
-2.245704	이십오 번 삼십이
-2.371683	이십오 번 삼십일
-2.245704	이십오 번 삼십칠
-2.245704	이십오 번 삼십팔
-2.245704	이십오 번 세균막
-2.070653	이십오 번 소아
-1.945715	이십오 번 소염술
-2.547775	이십오 번 십
-2.245704	이십오 번 십구
-2.245704	이십오 번 십사
-2.245704	이십오 번 십삼
-2.245704	이십오 번 십오
-2.245704	이십오 번 십육
-2.371683	이십오 번 십이
-2.245704	이십오 번 십일
-2.245704	이십오 번 십칠
-2.245704	이십오 번 십팔
-2.245704	이십오 번 아목시실린
-2.070653	이십오 번 약관절
-2.245704	이십오 번 영구
-2.245704	이십오 번 영구접착
-2.245704	이십오 번 오
-2.245704	이십오 번 오구멘틴
-1.945715	이십오 번 완전
-2.003707	이십오 번 원외
-2.371683	이십오 번 육
-2.245704	이십오 번 응급
-2.245704	이십오 번 이
-2.245704	이십오 번 이십
-2.371683	이십오 번 이십구
-2.371683	이십오 번 이십사
-2.371683	이십오 번 이십삼
-2.371683	이십오 번 이십육
-2.245704	이십오 번 이십이
-2.371683	이십오 번 이십일
-2.245704	이십오 번 이십칠
-2.371683	이십오 번 이십팔
-2.245704	이십오 번 인레이
-2.245704	이십오 번 일
-2.003707	이십오 번 임시
-2.245704	이십오 번 임플
-2.003707	이십오 번 전달
-2.070653	이십오 번 지각
-2.371683	이십오 번 진정
-2.245704	이십오 번 충전
-1.945715	이십오 번 충전재
-1.945715	이십오 번 치관
-2.003707	이십오 번 치근
-2.070653	이십오 번 치면
-2.245704	이십오 번 치석
-1.945715	이십오 번 치수
-1.672713	이십오 번 치은
-2.070653	이십오 번 치은판
-1.945715	이십오 번 치조골
-2.245704	이십오 번 치주소파
-2.245704	이십오 번 칠
-2.070653	이십오 번 침윤
-2.245704	이십오 번 파노라마
-2.245704	이십오 번 파철편
-2.245704	이십오 번 팔
-2.070653	이십오 번 포스트
-2.003707	이십오 번 혈당
-1.945715	이십오 번 홈
-2.003707	이십오 번 후
-0.6816207	이십육 번 </s>
-2.359835	이십육 번 <UNK>
-1.933867	이십육 번 APF
-1.933867	이십육 번 CR
-1.933867	이십육 번 CT
-1.933867	이십육 번 EPT
-2.359835	이십육 번 GI
-2.233856	이십육 번 REENDO
-2.233856	이십육 번 SBS
-2.359835	이십육 번 가압
-1.933867	이십육 번 교익
-1.991859	이십육 번 교합
-2.233856	이십육 번 구
-1.632837	이십육 번 구강
-1.933867	이십육 번 구내염
-1.421983	이십육 번 근
-2.233856	이십육 번 난
-1.757776	이십육 번 단순
-2.359835	이십육 번 당일
-2.233856	이십육 번 덴티스타
-2.233856	이십육 번 동시
-2.233856	이십육 번 드레싱
-2.233856	이십육 번 러버댐
-2.359835	이십육 번 로도질
-2.233856	이십육 번 발수
-2.359835	이십육 번 발치
-2.233856	이십육 번 보철
-1.933867	이십육 번 보철물
-2.137987	이십육 번 보철재
-2.233856	이십육 번 보통
-1.933867	이십육 번 복잡
-2.233856	이십육 번 봉합사
-2.233856	이십육 번 부분
-1.933867	이십육 번 비
-2.359835	이십육 번 사
-2.359835	이십육 번 사십
-2.359835	이십육 번 삼
-2.233856	이십육 번 삼십
-2.233856	이십육 번 삼십구
-2.233856	이십육 번 삼십사
-2.233856	이십육 번 삼십삼
-2.233856	이십육 번 삼십오
-2.233856	이십육 번 삼십육
-2.233856	이십육 번 삼십이
-2.233856	이십육 번 삼십일
-2.359835	이십육 번 삼십칠
-2.359835	이십육 번 삼십팔
-2.233856	이십육 번 세균막
-1.991859	이십육 번 소아
-2.058805	이십육 번 소염술
-2.233856	이십육 번 십
-2.233856	이십육 번 십구
-2.233856	이십육 번 십사
-2.233856	이십육 번 십삼
-2.233856	이십육 번 십오
-2.535927	이십육 번 십육
-2.233856	이십육 번 십이
-2.359835	이십육 번 십일
-2.233856	이십육 번 십칠
-2.359835	이십육 번 십팔
-2.359835	이십육 번 아목시실린
-1.933867	이십육 번 약관절
-2.359835	이십육 번 영구
-2.233856	이십육 번 영구접착
-2.359835	이십육 번 오
-2.359835	이십육 번 오구멘틴
-1.991859	이십육 번 완전
-1.933867	이십육 번 원외
-2.233856	이십육 번 육
-2.233856	이십육 번 응급
-2.359835	이십육 번 이
-2.359835	이십육 번 이십
-2.233856	이십육 번 이십구
-2.233856	이십육 번 이십사
-2.359835	이십육 번 이십삼
-2.233856	이십육 번 이십오
-2.535927	이십육 번 이십이
-2.359835	이십육 번 이십일
-2.359835	이십육 번 이십칠
-2.535927	이십육 번 이십팔
-2.535927	이십육 번 인레이
-2.359835	이십육 번 일
-1.933867	이십육 번 임시
-2.359835	이십육 번 임플
-2.058805	이십육 번 전달
-1.991859	이십육 번 지각
-2.359835	이십육 번 진정
-2.233856	이십육 번 충전
-2.058805	이십육 번 충전재
-1.991859	이십육 번 치관
-1.933867	이십육 번 치근
-2.137987	이십육 번 치면
-2.359835	이십육 번 치석
-1.991859	이십육 번 치수
-1.660865	이십육 번 치은
-1.933867	이십육 번 치은판
-1.991859	이십육 번 치조골
-2.233856	이십육 번 치주소파
-2.233856	이십육 번 칠
-2.058805	이십육 번 침윤
-2.233856	이십육 번 파노라마
-2.233856	이십육 번 파철편
-2.359835	이십육 번 팔
-1.933867	이십육 번 포스트
-1.933867	이십육 번 혈당
-1.991859	이십육 번 홈
-1.991859	이십육 번 후
-0.7021751	이십이 번 </s>
-2.229408	이십이 번 <UNK>
-1.987411	이십이 번 APF
-2.054358	이십이 번 CR
-2.054358	이십이 번 CT
-1.929419	이십이 번 EPT
-2.531479	이십이 번 GI
-2.355388	이십이 번 REENDO
-2.229408	이십이 번 SBS
-2.229408	이십이 번 가압
-2.355388	이십이 번 교익
-1.987411	이십이 번 교합
-2.355388	이십이 번 구
-1.656418	이십이 번 구강
-2.054358	이십이 번 구내염
-1.355388	이십이 번 근
-2.229408	이십이 번 난
-1.832509	이십이 번 단순
-2.531479	이십이 번 당일
-2.229408	이십이 번 덴티스타
-2.229408	이십이 번 동시
-2.229408	이십이 번 드레싱
-2.355388	이십이 번 러버댐
-2.229408	이십이 번 로도질
-2.229408	이십이 번 발수
-2.229408	이십이 번 발치
-2.229408	이십이 번 보철
-1.929419	이십이 번 보철물
-1.987411	이십이 번 보철재
-2.229408	이십이 번 보통
-1.929419	이십이 번 복잡
-2.355388	이십이 번 봉합사
-2.229408	이십이 번 부분
-2.133539	이십이 번 비
-2.229408	이십이 번 사
-2.229408	이십이 번 사십
-2.229408	이십이 번 삼
-2.229408	이십이 번 삼십
-2.229408	이십이 번 삼십구
-2.229408	이십이 번 삼십사
-2.355388	이십이 번 삼십삼
-2.229408	이십이 번 삼십오
-2.229408	이십이 번 삼십육
-2.355388	이십이 번 삼십이
-2.229408	이십이 번 삼십일
-2.355388	이십이 번 삼십칠
-2.229408	이십이 번 삼십팔
-1.929419	이십이 번 소아
-2.054358	이십이 번 소염술
-2.229408	이십이 번 십
-2.355388	이십이 번 십구
-2.229408	이십이 번 십사
-2.229408	이십이 번 십삼
-2.229408	이십이 번 십오
-2.229408	이십이 번 십육
-2.229408	이십이 번 십이
-2.229408	이십이 번 십일
-2.355388	이십이 번 십칠
-2.355388	이십이 번 십팔
-2.355388	이십이 번 아목시실린
-1.929419	이십이 번 약관절
-2.229408	이십이 번 영구
-2.355388	이십이 번 영구접착
-2.229408	이십이 번 오
-2.229408	이십이 번 오구멘틴
-1.987411	이십이 번 완전
-1.987411	이십이 번 원외
-2.229408	이십이 번 육
-2.355388	이십이 번 응급
-2.229408	이십이 번 이
-2.229408	이십이 번 이십
-2.355388	이십이 번 이십구
-2.229408	이십이 번 이십사
-2.229408	이십이 번 이십삼
-2.355388	이십이 번 이십오
-2.229408	이십이 번 이십육
-2.229408	이십이 번 이십일
-2.229408	이십이 번 이십칠
-2.229408	이십이 번 이십팔
-2.229408	이십이 번 인레이
-2.229408	이십이 번 일
-1.929419	이십이 번 임시
-2.355388	이십이 번 임플
-1.929419	이십이 번 전달
-1.987411	이십이 번 지각
-2.355388	이십이 번 진정
-2.229408	이십이 번 충전
-1.929419	이십이 번 충전재
-1.929419	이십이 번 치관
-1.929419	이십이 번 치근
-1.987411	이십이 번 치면
-2.229408	이십이 번 치석
-1.929419	이십이 번 치수
-1.791116	이십이 번 치은
-1.929419	이십이 번 치은판
-1.929419	이십이 번 치조골
-2.229408	이십이 번 치주소파
-2.355388	이십이 번 칠
-1.929419	이십이 번 침윤
-2.355388	이십이 번 파노라마
-2.355388	이십이 번 파철편
-2.531479	이십이 번 팔
-1.929419	이십이 번 포스트
-1.929419	이십이 번 혈당
-1.929419	이십이 번 홈
-1.987411	이십이 번 후
-0.6977001	이십일 번 </s>
-2.23132	이십일 번 <UNK>
-1.931331	이십일 번 APF
-2.056269	이십일 번 CR
-1.989323	이십일 번 CT
-2.056269	이십일 번 EPT
-2.23132	이십일 번 GI
-2.23132	이십일 번 REENDO
-2.23132	이십일 번 SBS
-2.23132	이십일 번 가압
-1.989323	이십일 번 교익
-1.989323	이십일 번 교합
-2.23132	이십일 번 구
-1.658329	이십일 번 구강
-2.056269	이십일 번 구내염
-1.372023	이십일 번 근
-2.23132	이십일 번 난
-1.793028	이십일 번 단순
-2.23132	이십일 번 당일
-2.23132	이십일 번 덴티스타
-2.23132	이십일 번 동시
-2.23132	이십일 번 드레싱
-2.23132	이십일 번 러버댐
-2.23132	이십일 번 로도질
-2.3573	이십일 번 발수
-2.23132	이십일 번 발치
-2.23132	이십일 번 보철
-1.931331	이십일 번 보철물
-1.989323	이십일 번 보철재
-2.23132	이십일 번 보통
-1.989323	이십일 번 복잡
-2.23132	이십일 번 봉합사
-2.3573	이십일 번 부분
-1.989323	이십일 번 비
-2.23132	이십일 번 사
-2.23132	이십일 번 사십
-2.23132	이십일 번 삼
-2.23132	이십일 번 삼십
-2.23132	이십일 번 삼십구
-2.533391	이십일 번 삼십사
-2.3573	이십일 번 삼십삼
-2.23132	이십일 번 삼십오
-2.3573	이십일 번 삼십육
-2.23132	이십일 번 삼십이
-2.533391	이십일 번 삼십일
-2.3573	이십일 번 삼십칠
-2.23132	이십일 번 삼십팔
-2.23132	이십일 번 세균막
-1.989323	이십일 번 소아
-1.989323	이십일 번 소염술
-2.23132	이십일 번 십
-2.3573	이십일 번 십구
-2.23132	이십일 번 십사
-2.23132	이십일 번 십삼
-2.3573	이십일 번 십오
-2.533391	이십일 번 십육
-2.3573	이십일 번 십이
-2.23132	이십일 번 십일
-2.23132	이십일 번 십칠
-2.3573	이십일 번 십팔
-2.3573	이십일 번 아목시실린
-1.931331	이십일 번 약관절
-2.3573	이십일 번 영구
-2.23132	이십일 번 영구접착
-2.23132	이십일 번 오
-2.3573	이십일 번 오구멘틴
-1.989323	이십일 번 완전
-1.989323	이십일 번 원외
-2.23132	이십일 번 육
-2.23132	이십일 번 응급
-2.3573	이십일 번 이
-2.23132	이십일 번 이십
-2.23132	이십일 번 이십구
-2.23132	이십일 번 이십사
-2.23132	이십일 번 이십삼
-2.23132	이십일 번 이십오
-2.23132	이십일 번 이십육
-2.3573	이십일 번 이십이
-2.23132	이십일 번 이십칠
-2.3573	이십일 번 이십팔
-2.3573	이십일 번 인레이
-2.23132	이십일 번 일
-1.931331	이십일 번 임시
-2.23132	이십일 번 임플
-1.931331	이십일 번 전달
-2.056269	이십일 번 지각
-2.533391	이십일 번 진정
-2.23132	이십일 번 충전
-1.989323	이십일 번 충전재
-2.056269	이십일 번 치관
-1.931331	이십일 번 치근
-1.989323	이십일 번 치면
-2.23132	이십일 번 치석
-2.135451	이십일 번 치수
-1.658329	이십일 번 치은
-1.989323	이십일 번 치은판
-2.056269	이십일 번 치조골
-2.23132	이십일 번 치주소파
-2.23132	이십일 번 칠
-1.931331	이십일 번 침윤
-2.3573	이십일 번 파노라마
-2.23132	이십일 번 파철편
-2.23132	이십일 번 팔
-1.931331	이십일 번 포스트
-2.056269	이십일 번 혈당
-2.056269	이십일 번 홈
-1.931331	이십일 번 후
-0.6685874	이십칠 번 </s>
-2.235748	이십칠 번 <UNK>
-1.935759	이십칠 번 APF
-1.993751	이십칠 번 CR
-1.935759	이십칠 번 CT
-1.935759	이십칠 번 EPT
-2.537819	이십칠 번 GI
-2.361728	이십칠 번 REENDO
-2.235748	이십칠 번 SBS
-2.235748	이십칠 번 가압
-2.060698	이십칠 번 교익
-1.993751	이십칠 번 교합
-2.235748	이십칠 번 구
-1.692721	이십칠 번 구강
-1.935759	이십칠 번 구내염
-1.391691	이십칠 번 근
-2.235748	이십칠 번 난
-1.884607	이십칠 번 단순
-2.235748	이십칠 번 당일
-2.361728	이십칠 번 덴티스타
-2.361728	이십칠 번 동시
-2.235748	이십칠 번 드레싱
-2.361728	이십칠 번 러버댐
-2.235748	이십칠 번 로도질
-2.361728	이십칠 번 발수
-2.361728	이십칠 번 발치
-2.235748	이십칠 번 보철
-1.993751	이십칠 번 보철물
-2.139879	이십칠 번 보철재
-2.361728	이십칠 번 보통
-1.993751	이십칠 번 복잡
-2.235748	이십칠 번 봉합사
-2.235748	이십칠 번 부분
-1.935759	이십칠 번 비
-2.235748	이십칠 번 사
-2.235748	이십칠 번 사십
-2.537819	이십칠 번 삼
-2.361728	이십칠 번 삼십
-2.361728	이십칠 번 삼십구
-2.361728	이십칠 번 삼십사
-2.235748	이십칠 번 삼십삼
-2.361728	이십칠 번 삼십오
-2.361728	이십칠 번 삼십육
-2.361728	이십칠 번 삼십이
-2.235748	이십칠 번 삼십일
-2.235748	이십칠 번 삼십칠
-2.235748	이십칠 번 삼십팔
-2.235748	이십칠 번 세균막
-1.935759	이십칠 번 소아
-1.993751	이십칠 번 소염술
-2.235748	이십칠 번 십
-2.235748	이십칠 번 십구
-2.235748	이십칠 번 십사
-2.235748	이십칠 번 십삼
-2.361728	이십칠 번 십오
-2.361728	이십칠 번 십육
-2.361728	이십칠 번 십이
-2.537819	이십칠 번 십일
-2.235748	이십칠 번 십칠
-2.361728	이십칠 번 십팔
-2.361728	이십칠 번 아목시실린
-1.993751	이십칠 번 약관절
-2.361728	이십칠 번 영구
-2.235748	이십칠 번 영구접착
-2.235748	이십칠 번 오
-2.235748	이십칠 번 오구멘틴
-1.935759	이십칠 번 완전
-1.935759	이십칠 번 원외
-2.235748	이십칠 번 육
-2.235748	이십칠 번 응급
-2.235748	이십칠 번 이
-2.537819	이십칠 번 이십
-2.235748	이십칠 번 이십구
-2.235748	이십칠 번 이십사
-2.235748	이십칠 번 이십삼
-2.235748	이십칠 번 이십오
-2.235748	이십칠 번 이십육
-2.361728	이십칠 번 이십이
-2.361728	이십칠 번 이십일
-2.235748	이십칠 번 이십팔
-2.361728	이십칠 번 인레이
-2.235748	이십칠 번 일
-1.935759	이십칠 번 임시
-2.235748	이십칠 번 임플
-1.935759	이십칠 번 전달
-2.060698	이십칠 번 지각
-2.235748	이십칠 번 진정
-2.235748	이십칠 번 충전
-1.993751	이십칠 번 충전재
-1.993751	이십칠 번 치관
-1.993751	이십칠 번 치근
-1.993751	이십칠 번 치면
-2.235748	이십칠 번 치석
-1.935759	이십칠 번 치수
-1.692721	이십칠 번 치은
-1.993751	이십칠 번 치은판
-1.935759	이십칠 번 치조골
-2.235748	이십칠 번 치주소파
-2.361728	이십칠 번 칠
-1.993751	이십칠 번 침윤
-2.235748	이십칠 번 파노라마
-2.537819	이십칠 번 파철편
-2.235748	이십칠 번 팔
-1.935759	이십칠 번 포스트
-2.139879	이십칠 번 혈당
-1.935759	이십칠 번 홈
-1.993751	이십칠 번 후
-0.7220353	이십팔 번 </s>
-2.239508	이십팔 번 <UNK>
-1.939519	이십팔 번 APF
-1.997511	이십팔 번 CR
-1.997511	이십팔 번 CT
-1.997511	이십팔 번 EPT
-2.239508	이십팔 번 GI
-2.239508	이십팔 번 REENDO
-2.239508	이십팔 번 SBS
-2.239508	이십팔 번 가압
-1.939519	이십팔 번 교익
-1.997511	이십팔 번 교합
-2.239508	이십팔 번 구
-1.666518	이십팔 번 구강
-1.939519	이십팔 번 구내염
-1.351248	이십팔 번 근
-2.239508	이십팔 번 난
-1.842609	이십팔 번 단순
-2.541579	이십팔 번 당일
-2.239508	이십팔 번 덴티스타
-2.239508	이십팔 번 동시
-2.239508	이십팔 번 드레싱
-2.239508	이십팔 번 러버댐
-2.365488	이십팔 번 로도질
-2.365488	이십팔 번 발수
-2.239508	이십팔 번 발치
-2.239508	이십팔 번 보철
-1.997511	이십팔 번 보철물
-1.997511	이십팔 번 보철재
-2.365488	이십팔 번 보통
-1.997511	이십팔 번 복잡
-2.239508	이십팔 번 봉합사
-2.239508	이십팔 번 부분
-2.064458	이십팔 번 비
-2.365488	이십팔 번 사
-2.239508	이십팔 번 사십
-2.239508	이십팔 번 삼
-2.365488	이십팔 번 삼십
-2.239508	이십팔 번 삼십구
-2.239508	이십팔 번 삼십사
-2.365488	이십팔 번 삼십삼
-2.239508	이십팔 번 삼십오
-2.239508	이십팔 번 삼십육
-2.239508	이십팔 번 삼십이
-2.541579	이십팔 번 삼십일
-2.239508	이십팔 번 삼십칠
-2.239508	이십팔 번 삼십팔
-2.365488	이십팔 번 세균막
-1.939519	이십팔 번 소아
-1.939519	이십팔 번 소염술
-2.239508	이십팔 번 십
-2.239508	이십팔 번 십구
-2.239508	이십팔 번 십사
-2.239508	이십팔 번 십삼
-2.239508	이십팔 번 십오
-2.239508	이십팔 번 십육
-2.239508	이십팔 번 십이
-2.365488	이십팔 번 십일
-2.239508	이십팔 번 십칠
-2.239508	이십팔 번 십팔
-2.365488	이십팔 번 아목시실린
-1.997511	이십팔 번 약관절
-2.239508	이십팔 번 영구
-2.365488	이십팔 번 영구접착
-2.239508	이십팔 번 오
-2.365488	이십팔 번 오구멘틴
-1.997511	이십팔 번 완전
-1.997511	이십팔 번 원외
-2.239508	이십팔 번 육
-2.239508	이십팔 번 응급
-2.365488	이십팔 번 이
-2.239508	이십팔 번 이십
-2.541579	이십팔 번 이십구
-2.239508	이십팔 번 이십사
-2.239508	이십팔 번 이십삼
-2.239508	이십팔 번 이십오
-2.239508	이십팔 번 이십육
-2.239508	이십팔 번 이십이
-2.365488	이십팔 번 이십일
-2.239508	이십팔 번 이십칠
-2.365488	이십팔 번 인레이
-2.239508	이십팔 번 일
-1.939519	이십팔 번 임시
-2.239508	이십팔 번 임플
-1.939519	이십팔 번 전달
-1.939519	이십팔 번 지각
-2.239508	이십팔 번 진정
-2.239508	이십팔 번 충전
-1.939519	이십팔 번 충전재
-1.997511	이십팔 번 치관
-2.064458	이십팔 번 치근
-1.939519	이십팔 번 치면
-2.239508	이십팔 번 치석
-1.997511	이십팔 번 치수
-1.638489	이십팔 번 치은
-2.064458	이십팔 번 치은판
-1.939519	이십팔 번 치조골
-2.239508	이십팔 번 치주소파
-2.239508	이십팔 번 칠
-1.939519	이십팔 번 침윤
-2.365488	이십팔 번 파노라마
-2.239508	이십팔 번 파철편
-2.365488	이십팔 번 팔
-1.939519	이십팔 번 포스트
-1.939519	이십팔 번 혈당
-1.939519	이십팔 번 홈
-1.997511	이십팔 번 후
-0.6846684	일 번 </s>
-2.359835	일 번 <UNK>
-1.933867	일 번 APF
-1.991859	일 번 CR
-1.991859	일 번 CT
-2.137987	일 번 EPT
-2.535927	일 번 GI
-2.233856	일 번 REENDO
-2.359835	일 번 SBS
-2.359835	일 번 가압
-2.058805	일 번 교익
-1.933867	일 번 교합
-2.535927	일 번 구
-1.723013	일 번 구강
-2.058805	일 번 구내염
-1.345595	일 번 근
-2.359835	일 번 난
-1.757776	일 번 단순
-2.233856	일 번 당일
-2.233856	일 번 덴티스타
-2.233856	일 번 동시
-2.233856	일 번 드레싱
-2.233856	일 번 러버댐
-2.233856	일 번 로도질
-2.233856	일 번 발수
-2.233856	일 번 발치
-2.359835	일 번 보철
-1.933867	일 번 보철물
-1.991859	일 번 보철재
-2.233856	일 번 보통
-1.991859	일 번 복잡
-2.233856	일 번 봉합사
-2.233856	일 번 부분
-1.933867	일 번 비
-2.233856	일 번 사
-2.359835	일 번 사십
-2.359835	일 번 삼
-2.233856	일 번 삼십
-2.359835	일 번 삼십구
-2.359835	일 번 삼십사
-2.233856	일 번 삼십삼
-2.233856	일 번 삼십오
-2.233856	일 번 삼십육
-2.233856	일 번 삼십이
-2.233856	일 번 삼십일
-2.233856	일 번 삼십칠
-2.233856	일 번 삼십팔
-2.359835	일 번 세균막
-1.933867	일 번 소아
-2.058805	일 번 소염술
-2.233856	일 번 십
-2.233856	일 번 십구
-2.233856	일 번 십사
-2.359835	일 번 십삼
-2.233856	일 번 십오
-2.359835	일 번 십육
-2.359835	일 번 십이
-2.233856	일 번 십일
-2.233856	일 번 십칠
-2.359835	일 번 십팔
-2.233856	일 번 아목시실린
-1.991859	일 번 약관절
-2.233856	일 번 영구
-2.359835	일 번 영구접착
-2.233856	일 번 오
-2.233856	일 번 오구멘틴
-2.137987	일 번 완전
-1.933867	일 번 원외
-2.535927	일 번 육
-2.233856	일 번 응급
-2.233856	일 번 이
-2.233856	일 번 이십
-2.233856	일 번 이십구
-2.359835	일 번 이십사
-2.233856	일 번 이십삼
-2.233856	일 번 이십오
-2.359835	일 번 이십육
-2.359835	일 번 이십이
-2.359835	일 번 이십일
-2.233856	일 번 이십칠
-2.233856	일 번 이십팔
-2.359835	일 번 인레이
-1.991859	일 번 임시
-2.233856	일 번 임플
-2.058805	일 번 전달
-2.058805	일 번 지각
-2.359835	일 번 진정
-2.233856	일 번 충전
-1.933867	일 번 충전재
-1.933867	일 번 치관
-1.933867	일 번 치근
-1.933867	일 번 치면
-2.359835	일 번 치석
-1.991859	일 번 치수
-1.690829	일 번 치은
-1.933867	일 번 치은판
-1.933867	일 번 치조골
-2.359835	일 번 치주소파
-2.233856	일 번 칠
-1.991859	일 번 침윤
-2.359835	일 번 파노라마
-2.233856	일 번 파철편
-2.233856	일 번 팔
-1.991859	일 번 포스트
-1.933867	일 번 혈당
-1.991859	일 번 홈
-2.058805	일 번 후
-0.6804866	칠 번 </s>
-2.235748	칠 번 <UNK>
-1.993751	칠 번 APF
-1.935759	칠 번 CR
-1.935759	칠 번 CT
-1.935759	칠 번 EPT
-2.235748	칠 번 GI
-2.235748	칠 번 REENDO
-2.235748	칠 번 SBS
-2.235748	칠 번 가압
-1.935759	칠 번 교익
-1.993751	칠 번 교합
-2.235748	칠 번 구
-1.692721	칠 번 구강
-1.993751	칠 번 구내염
-1.376451	칠 번 근
-2.361728	칠 번 난
-1.797456	칠 번 단순
-2.235748	칠 번 당일
-2.235748	칠 번 덴티스타
-2.235748	칠 번 동시
-2.235748	칠 번 드레싱
-2.235748	칠 번 러버댐
-2.235748	칠 번 로도질
-2.537819	칠 번 발수
-2.235748	칠 번 발치
-2.235748	칠 번 보철
-1.993751	칠 번 보철물
-2.235748	칠 번 보철재
-2.361728	칠 번 보통
-2.060698	칠 번 복잡
-2.235748	칠 번 봉합사
-2.537819	칠 번 부분
-1.935759	칠 번 비
-2.235748	칠 번 사
-2.361728	칠 번 사십
-2.235748	칠 번 삼
-2.235748	칠 번 삼십
-2.235748	칠 번 삼십구
-2.361728	칠 번 삼십사
-2.361728	칠 번 삼십삼
-2.235748	칠 번 삼십오
-2.361728	칠 번 삼십육
-2.235748	칠 번 삼십이
-2.235748	칠 번 삼십일
-2.235748	칠 번 삼십칠
-2.361728	칠 번 삼십팔
-2.235748	칠 번 세균막
-1.993751	칠 번 소아
-1.935759	칠 번 소염술
-2.235748	칠 번 십
-2.361728	칠 번 십구
-2.235748	칠 번 십사
-2.235748	칠 번 십삼
-2.361728	칠 번 십오
-2.235748	칠 번 십육
-2.361728	칠 번 십이
-2.235748	칠 번 십일
-2.235748	칠 번 십칠
-2.235748	칠 번 십팔
-2.537819	칠 번 아목시실린
-1.935759	칠 번 약관절
-2.235748	칠 번 영구
-2.235748	칠 번 영구접착
-2.235748	칠 번 오
-2.235748	칠 번 오구멘틴
-2.235748	칠 번 완전
-1.935759	칠 번 원외
-2.235748	칠 번 육
-2.235748	칠 번 응급
-2.235748	칠 번 이
-2.235748	칠 번 이십
-2.235748	칠 번 이십구
-2.235748	칠 번 이십사
-2.361728	칠 번 이십삼
-2.361728	칠 번 이십오
-2.361728	칠 번 이십육
-2.361728	칠 번 이십이
-2.361728	칠 번 이십일
-2.235748	칠 번 이십칠
-2.361728	칠 번 이십팔
-2.235748	칠 번 인레이
-2.235748	칠 번 일
-1.993751	칠 번 임시
-2.537819	칠 번 임플
-1.993751	칠 번 전달
-1.935759	칠 번 지각
-2.235748	칠 번 진정
-2.235748	칠 번 충전
-2.139879	칠 번 충전재
-1.993751	칠 번 치관
-1.935759	칠 번 치근
-1.935759	칠 번 치면
-2.235748	칠 번 치석
-1.993751	칠 번 치수
-1.692721	칠 번 치은
-1.993751	칠 번 치은판
-1.993751	칠 번 치조골
-2.361728	칠 번 치주소파
-1.935759	칠 번 침윤
-2.361728	칠 번 파노라마
-2.361728	칠 번 파철편
-2.361728	칠 번 팔
-1.935759	칠 번 포스트
-2.060698	칠 번 혈당
-1.993751	칠 번 홈
-1.935759	칠 번 후
-0.6983491	팔 번 </s>
-2.367356	팔 번 <UNK>
-1.999379	팔 번 APF
-1.941387	팔 번 CR
-1.941387	팔 번 CT
-1.999379	팔 번 EPT
-2.543447	팔 번 GI
-2.241376	팔 번 REENDO
-2.241376	팔 번 SBS
-2.241376	팔 번 가압
-1.941387	팔 번 교익
-1.941387	팔 번 교합
-2.241376	팔 번 구
-1.698349	팔 번 구강
-2.066326	팔 번 구내염
-1.397319	팔 번 근
-2.241376	팔 번 난
-1.844477	팔 번 단순
-2.241376	팔 번 당일
-2.241376	팔 번 덴티스타
-2.241376	팔 번 동시
-2.241376	팔 번 드레싱
-2.241376	팔 번 러버댐
-2.367356	팔 번 로도질
-2.367356	팔 번 발수
-2.241376	팔 번 발치
-2.367356	팔 번 보철
-1.941387	팔 번 보철물
-1.941387	팔 번 보철재
-2.241376	팔 번 보통
-1.999379	팔 번 복잡
-2.367356	팔 번 봉합사
-2.367356	팔 번 부분
-1.941387	팔 번 비
-2.241376	팔 번 사
-2.241376	팔 번 사십
-2.241376	팔 번 삼
-2.241376	팔 번 삼십
-2.241376	팔 번 삼십구
-2.241376	팔 번 삼십사
-2.241376	팔 번 삼십삼
-2.241376	팔 번 삼십오
-2.241376	팔 번 삼십육
-2.241376	팔 번 삼십이
-2.241376	팔 번 삼십일
-2.241376	팔 번 삼십칠
-2.241376	팔 번 삼십팔
-2.241376	팔 번 세균막
-2.066326	팔 번 소아
-1.999379	팔 번 소염술
-2.241376	팔 번 십
-2.241376	팔 번 십구
-2.367356	팔 번 십사
-2.367356	팔 번 십삼
-2.241376	팔 번 십오
-2.241376	팔 번 십육
-2.543447	팔 번 십이
-2.241376	팔 번 십일
-2.241376	팔 번 십칠
-2.241376	팔 번 십팔
-2.241376	팔 번 아목시실린
-1.941387	팔 번 약관절
-2.241376	팔 번 영구
-2.241376	팔 번 영구접착
-2.241376	팔 번 오
-2.241376	팔 번 오구멘틴
-1.941387	팔 번 완전
-1.941387	팔 번 원외
-2.241376	팔 번 육
-2.367356	팔 번 응급
-2.241376	팔 번 이
-2.241376	팔 번 이십
-2.241376	팔 번 이십구
-2.241376	팔 번 이십사
-2.241376	팔 번 이십삼
-2.241376	팔 번 이십오
-2.241376	팔 번 이십육
-2.367356	팔 번 이십이
-2.367356	팔 번 이십일
-2.241376	팔 번 이십칠
-2.543447	팔 번 이십팔
-2.241376	팔 번 인레이
-2.367356	팔 번 일
-1.941387	팔 번 임시
-2.241376	팔 번 임플
-1.941387	팔 번 전달
-1.999379	팔 번 지각
-2.367356	팔 번 진정
-2.241376	팔 번 충전
-2.066326	팔 번 충전재
-1.999379	팔 번 치관
-1.999379	팔 번 치근
-1.999379	팔 번 치면
-2.241376	팔 번 치석
-2.066326	팔 번 치수
-1.668386	팔 번 치은
-1.999379	팔 번 치은판
-1.941387	팔 번 치조골
-2.241376	팔 번 치주소파
-2.241376	팔 번 칠
-2.145507	팔 번 침윤
-2.241376	팔 번 파노라마
-2.241376	팔 번 파철편
-1.941387	팔 번 포스트
-1.999379	팔 번 혈당
-1.999379	팔 번 홈
-1.941387	팔 번 후
-0.3511416	<s> 복잡 매목
-0.3511416	<s> 복잡 매복
-0.2950396	번 복잡 매목
-0.3101734	번 복잡 매복
-0.002964479	지각 복잡 </s>
-0.002984853	관 성형 </s>
-0.002904991	치조골 성형 술
-0.0007846334	<s> 육 번
-0.00282929	근 육 주사
-0.003026455	번 육 번
-0.09586907	<s> 충전 율
-0.003047693	GI 충전 </s>
-0.002984853	번 충전 율
-0.02996322	<s> 치은 절제
-0.0007559523	번 치은 절제
-0.002904991	소염술 치은 </s>

\end\
